{"learner":{"attributes":{"scikit_learn":"{\"_estimator_type\": \"classifier\"}"},"feature_names":["CreditScore","Age","Balance","IsActiveMember","EstimatedSalary","TargetAge","Geography_France","Geography_Germany","Geography_Spain","Gender_Female","Gender_Male","NumOfProducts_1","NumOfProducts_2","NumOfProducts_3","NumOfProducts_4"],"feature_types":["float","float","float","float","float","float","float","float","float","float","float","float","float","float","float"],"gradient_booster":{"model":{"gbtree_model_param":{"num_parallel_tree":"1","num_trees":"2683"},"iteration_indptr":[0,1,2,3,4,5,6,7,8,9,10,11,12,13,14,15,16,17,18,19,20,21,22,23,24,25,26,27,28,29,30,31,32,33,34,35,36,37,38,39,40,41,42,43,44,45,46,47,48,49,50,51,52,53,54,55,56,57,58,59,60,61,62,63,64,65,66,67,68,69,70,71,72,73,74,75,76,77,78,79,80,81,82,83,84,85,86,87,88,89,90,91,92,93,94,95,96,97,98,99,100,101,102,103,104,105,106,107,108,109,110,111,112,113,114,115,116,117,118,119,120,121,122,123,124,125,126,127,128,129,130,131,132,133,134,135,136,137,138,139,140,141,142,143,144,145,146,147,148,149,150,151,152,153,154,155,156,157,158,159,160,161,162,163,164,165,166,167,168,169,170,171,172,173,174,175,176,177,178,179,180,181,182,183,184,185,186,187,188,189,190,191,192,193,194,195,196,197,198,199,200,201,202,203,204,205,206,207,208,209,210,211,212,213,214,215,216,217,218,219,220,221,222,223,224,225,226,227,228,229,230,231,232,233,234,235,236,237,238,239,240,241,242,243,244,245,246,247,248,249,250,251,252,253,254,255,256,257,258,259,260,261,262,263,264,265,266,267,268,269,270,271,272,273,274,275,276,277,278,279,280,281,282,283,284,285,286,287,288,289,290,291,292,293,294,295,296,297,298,299,300,301,302,303,304,305,306,307,308,309,310,311,312,313,314,315,316,317,318,319,320,321,322,323,324,325,326,327,328,329,330,331,332,333,334,335,336,337,338,339,340,341,342,343,344,345,346,347,348,349,350,351,352,353,354,355,356,357,358,359,360,361,362,363,364,365,366,367,368,369,370,371,372,373,374,375,376,377,378,379,380,381,382,383,384,385,386,387,388,389,390,391,392,393,394,395,396,397,398,399,400,401,402,403,404,405,406,407,408,409,410,411,412,413,414,415,416,417,418,419,420,421,422,423,424,425,426,427,428,429,430,431,432,433,434,435,436,437,438,439,440,441,442,443,444,445,446,447,448,449,450,451,452,453,454,455,456,457,458,459,460,461,462,463,464,465,466,467,468,469,470,471,472,473,474,475,476,477,478,479,480,481,482,483,484,485,486,487,488,489,490,491,492,493,494,495,496,497,498,499,500,501,502,503,504,505,506,507,508,509,510,511,512,513,514,515,516,517,518,519,520,521,522,523,524,525,526,527,528,529,530,531,532,533,534,535,536,537,538,539,540,541,542,543,544,545,546,547,548,549,550,551,552,553,554,555,556,557,558,559,560,561,562,563,564,565,566,567,568,569,570,571,572,573,574,575,576,577,578,579,580,581,582,583,584,585,586,587,588,589,590,591,592,593,594,595,596,597,598,599,600,601,602,603,604,605,606,607,608,609,610,611,612,613,614,615,616,617,618,619,620,621,622,623,624,625,626,627,628,629,630,631,632,633,634,635,636,637,638,639,640,641,642,643,644,645,646,647,648,649,650,651,652,653,654,655,656,657,658,659,660,661,662,663,664,665,666,667,668,669,670,671,672,673,674,675,676,677,678,679,680,681,682,683,684,685,686,687,688,689,690,691,692,693,694,695,696,697,698,699,700,701,702,703,704,705,706,707,708,709,710,711,712,713,714,715,716,717,718,719,720,721,722,723,724,725,726,727,728,729,730,731,732,733,734,735,736,737,738,739,740,741,742,743,744,745,746,747,748,749,750,751,752,753,754,755,756,757,758,759,760,761,762,763,764,765,766,767,768,769,770,771,772,773,774,775,776,777,778,779,780,781,782,783,784,785,786,787,788,789,790,791,792,793,794,795,796,797,798,799,800,801,802,803,804,805,806,807,808,809,810,811,812,813,814,815,816,817,818,819,820,821,822,823,824,825,826,827,828,829,830,831,832,833,834,835,836,837,838,839,840,841,842,843,844,845,846,847,848,849,850,851,852,853,854,855,856,857,858,859,860,861,862,863,864,865,866,867,868,869,870,871,872,873,874,875,876,877,878,879,880,881,882,883,884,885,886,887,888,889,890,891,892,893,894,895,896,897,898,899,900,901,902,903,904,905,906,907,908,909,910,911,912,913,914,915,916,917,918,919,920,921,922,923,924,925,926,927,928,929,930,931,932,933,934,935,936,937,938,939,940,941,942,943,944,945,946,947,948,949,950,951,952,953,954,955,956,957,958,959,960,961,962,963,964,965,966,967,968,969,970,971,972,973,974,975,976,977,978,979,980,981,982,983,984,985,986,987,988,989,990,991,992,993,994,995,996,997,998,999,1000,1001,1002,1003,1004,1005,1006,1007,1008,1009,1010,1011,1012,1013,1014,1015,1016,1017,1018,1019,1020,1021,1022,1023,1024,1025,1026,1027,1028,1029,1030,1031,1032,1033,1034,1035,1036,1037,1038,1039,1040,1041,1042,1043,1044,1045,1046,1047,1048,1049,1050,1051,1052,1053,1054,1055,1056,1057,1058,1059,1060,1061,1062,1063,1064,1065,1066,1067,1068,1069,1070,1071,1072,1073,1074,1075,1076,1077,1078,1079,1080,1081,1082,1083,1084,1085,1086,1087,1088,1089,1090,1091,1092,1093,1094,1095,1096,1097,1098,1099,1100,1101,1102,1103,1104,1105,1106,1107,1108,1109,1110,1111,1112,1113,1114,1115,1116,1117,1118,1119,1120,1121,1122,1123,1124,1125,1126,1127,1128,1129,1130,1131,1132,1133,1134,1135,1136,1137,1138,1139,1140,1141,1142,1143,1144,1145,1146,1147,1148,1149,1150,1151,1152,1153,1154,1155,1156,1157,1158,1159,1160,1161,1162,1163,1164,1165,1166,1167,1168,1169,1170,1171,1172,1173,1174,1175,1176,1177,1178,1179,1180,1181,1182,1183,1184,1185,1186,1187,1188,1189,1190,1191,1192,1193,1194,1195,1196,1197,1198,1199,1200,1201,1202,1203,1204,1205,1206,1207,1208,1209,1210,1211,1212,1213,1214,1215,1216,1217,1218,1219,1220,1221,1222,1223,1224,1225,1226,1227,1228,1229,1230,1231,1232,1233,1234,1235,1236,1237,1238,1239,1240,1241,1242,1243,1244,1245,1246,1247,1248,1249,1250,1251,1252,1253,1254,1255,1256,1257,1258,1259,1260,1261,1262,1263,1264,1265,1266,1267,1268,1269,1270,1271,1272,1273,1274,1275,1276,1277,1278,1279,1280,1281,1282,1283,1284,1285,1286,1287,1288,1289,1290,1291,1292,1293,1294,1295,1296,1297,1298,1299,1300,1301,1302,1303,1304,1305,1306,1307,1308,1309,1310,1311,1312,1313,1314,1315,1316,1317,1318,1319,1320,1321,1322,1323,1324,1325,1326,1327,1328,1329,1330,1331,1332,1333,1334,1335,1336,1337,1338,1339,1340,1341,1342,1343,1344,1345,1346,1347,1348,1349,1350,1351,1352,1353,1354,1355,1356,1357,1358,1359,1360,1361,1362,1363,1364,1365,1366,1367,1368,1369,1370,1371,1372,1373,1374,1375,1376,1377,1378,1379,1380,1381,1382,1383,1384,1385,1386,1387,1388,1389,1390,1391,1392,1393,1394,1395,1396,1397,1398,1399,1400,1401,1402,1403,1404,1405,1406,1407,1408,1409,1410,1411,1412,1413,1414,1415,1416,1417,1418,1419,1420,1421,1422,1423,1424,1425,1426,1427,1428,1429,1430,1431,1432,1433,1434,1435,1436,1437,1438,1439,1440,1441,1442,1443,1444,1445,1446,1447,1448,1449,1450,1451,1452,1453,1454,1455,1456,1457,1458,1459,1460,1461,1462,1463,1464,1465,1466,1467,1468,1469,1470,1471,1472,1473,1474,1475,1476,1477,1478,1479,1480,1481,1482,1483,1484,1485,1486,1487,1488,1489,1490,1491,1492,1493,1494,1495,1496,1497,1498,1499,1500,1501,1502,1503,1504,1505,1506,1507,1508,1509,1510,1511,1512,1513,1514,1515,1516,1517,1518,1519,1520,1521,1522,1523,1524,1525,1526,1527,1528,1529,1530,1531,1532,1533,1534,1535,1536,1537,1538,1539,1540,1541,1542,1543,1544,1545,1546,1547,1548,1549,1550,1551,1552,1553,1554,1555,1556,1557,1558,1559,1560,1561,1562,1563,1564,1565,1566,1567,1568,1569,1570,1571,1572,1573,1574,1575,1576,1577,1578,1579,1580,1581,1582,1583,1584,1585,1586,1587,1588,1589,1590,1591,1592,1593,1594,1595,1596,1597,1598,1599,1600,1601,1602,1603,1604,1605,1606,1607,1608,1609,1610,1611,1612,1613,1614,1615,1616,1617,1618,1619,1620,1621,1622,1623,1624,1625,1626,1627,1628,1629,1630,1631,1632,1633,1634,1635,1636,1637,1638,1639,1640,1641,1642,1643,1644,1645,1646,1647,1648,1649,1650,1651,1652,1653,1654,1655,1656,1657,1658,1659,1660,1661,1662,1663,1664,1665,1666,1667,1668,1669,1670,1671,1672,1673,1674,1675,1676,1677,1678,1679,1680,1681,1682,1683,1684,1685,1686,1687,1688,1689,1690,1691,1692,1693,1694,1695,1696,1697,1698,1699,1700,1701,1702,1703,1704,1705,1706,1707,1708,1709,1710,1711,1712,1713,1714,1715,1716,1717,1718,1719,1720,1721,1722,1723,1724,1725,1726,1727,1728,1729,1730,1731,1732,1733,1734,1735,1736,1737,1738,1739,1740,1741,1742,1743,1744,1745,1746,1747,1748,1749,1750,1751,1752,1753,1754,1755,1756,1757,1758,1759,1760,1761,1762,1763,1764,1765,1766,1767,1768,1769,1770,1771,1772,1773,1774,1775,1776,1777,1778,1779,1780,1781,1782,1783,1784,1785,1786,1787,1788,1789,1790,1791,1792,1793,1794,1795,1796,1797,1798,1799,1800,1801,1802,1803,1804,1805,1806,1807,1808,1809,1810,1811,1812,1813,1814,1815,1816,1817,1818,1819,1820,1821,1822,1823,1824,1825,1826,1827,1828,1829,1830,1831,1832,1833,1834,1835,1836,1837,1838,1839,1840,1841,1842,1843,1844,1845,1846,1847,1848,1849,1850,1851,1852,1853,1854,1855,1856,1857,1858,1859,1860,1861,1862,1863,1864,1865,1866,1867,1868,1869,1870,1871,1872,1873,1874,1875,1876,1877,1878,1879,1880,1881,1882,1883,1884,1885,1886,1887,1888,1889,1890,1891,1892,1893,1894,1895,1896,1897,1898,1899,1900,1901,1902,1903,1904,1905,1906,1907,1908,1909,1910,1911,1912,1913,1914,1915,1916,1917,1918,1919,1920,1921,1922,1923,1924,1925,1926,1927,1928,1929,1930,1931,1932,1933,1934,1935,1936,1937,1938,1939,1940,1941,1942,1943,1944,1945,1946,1947,1948,1949,1950,1951,1952,1953,1954,1955,1956,1957,1958,1959,1960,1961,1962,1963,1964,1965,1966,1967,1968,1969,1970,1971,1972,1973,1974,1975,1976,1977,1978,1979,1980,1981,1982,1983,1984,1985,1986,1987,1988,1989,1990,1991,1992,1993,1994,1995,1996,1997,1998,1999,2000,2001,2002,2003,2004,2005,2006,2007,2008,2009,2010,2011,2012,2013,2014,2015,2016,2017,2018,2019,2020,2021,2022,2023,2024,2025,2026,2027,2028,2029,2030,2031,2032,2033,2034,2035,2036,2037,2038,2039,2040,2041,2042,2043,2044,2045,2046,2047,2048,2049,2050,2051,2052,2053,2054,2055,2056,2057,2058,2059,2060,2061,2062,2063,2064,2065,2066,2067,2068,2069,2070,2071,2072,2073,2074,2075,2076,2077,2078,2079,2080,2081,2082,2083,2084,2085,2086,2087,2088,2089,2090,2091,2092,2093,2094,2095,2096,2097,2098,2099,2100,2101,2102,2103,2104,2105,2106,2107,2108,2109,2110,2111,2112,2113,2114,2115,2116,2117,2118,2119,2120,2121,2122,2123,2124,2125,2126,2127,2128,2129,2130,2131,2132,2133,2134,2135,2136,2137,2138,2139,2140,2141,2142,2143,2144,2145,2146,2147,2148,2149,2150,2151,2152,2153,2154,2155,2156,2157,2158,2159,2160,2161,2162,2163,2164,2165,2166,2167,2168,2169,2170,2171,2172,2173,2174,2175,2176,2177,2178,2179,2180,2181,2182,2183,2184,2185,2186,2187,2188,2189,2190,2191,2192,2193,2194,2195,2196,2197,2198,2199,2200,2201,2202,2203,2204,2205,2206,2207,2208,2209,2210,2211,2212,2213,2214,2215,2216,2217,2218,2219,2220,2221,2222,2223,2224,2225,2226,2227,2228,2229,2230,2231,2232,2233,2234,2235,2236,2237,2238,2239,2240,2241,2242,2243,2244,2245,2246,2247,2248,2249,2250,2251,2252,2253,2254,2255,2256,2257,2258,2259,2260,2261,2262,2263,2264,2265,2266,2267,2268,2269,2270,2271,2272,2273,2274,2275,2276,2277,2278,2279,2280,2281,2282,2283,2284,2285,2286,2287,2288,2289,2290,2291,2292,2293,2294,2295,2296,2297,2298,2299,2300,2301,2302,2303,2304,2305,2306,2307,2308,2309,2310,2311,2312,2313,2314,2315,2316,2317,2318,2319,2320,2321,2322,2323,2324,2325,2326,2327,2328,2329,2330,2331,2332,2333,2334,2335,2336,2337,2338,2339,2340,2341,2342,2343,2344,2345,2346,2347,2348,2349,2350,2351,2352,2353,2354,2355,2356,2357,2358,2359,2360,2361,2362,2363,2364,2365,2366,2367,2368,2369,2370,2371,2372,2373,2374,2375,2376,2377,2378,2379,2380,2381,2382,2383,2384,2385,2386,2387,2388,2389,2390,2391,2392,2393,2394,2395,2396,2397,2398,2399,2400,2401,2402,2403,2404,2405,2406,2407,2408,2409,2410,2411,2412,2413,2414,2415,2416,2417,2418,2419,2420,2421,2422,2423,2424,2425,2426,2427,2428,2429,2430,2431,2432,2433,2434,2435,2436,2437,2438,2439,2440,2441,2442,2443,2444,2445,2446,2447,2448,2449,2450,2451,2452,2453,2454,2455,2456,2457,2458,2459,2460,2461,2462,2463,2464,2465,2466,2467,2468,2469,2470,2471,2472,2473,2474,2475,2476,2477,2478,2479,2480,2481,2482,2483,2484,2485,2486,2487,2488,2489,2490,2491,2492,2493,2494,2495,2496,2497,2498,2499,2500,2501,2502,2503,2504,2505,2506,2507,2508,2509,2510,2511,2512,2513,2514,2515,2516,2517,2518,2519,2520,2521,2522,2523,2524,2525,2526,2527,2528,2529,2530,2531,2532,2533,2534,2535,2536,2537,2538,2539,2540,2541,2542,2543,2544,2545,2546,2547,2548,2549,2550,2551,2552,2553,2554,2555,2556,2557,2558,2559,2560,2561,2562,2563,2564,2565,2566,2567,2568,2569,2570,2571,2572,2573,2574,2575,2576,2577,2578,2579,2580,2581,2582,2583,2584,2585,2586,2587,2588,2589,2590,2591,2592,2593,2594,2595,2596,2597,2598,2599,2600,2601,2602,2603,2604,2605,2606,2607,2608,2609,2610,2611,2612,2613,2614,2615,2616,2617,2618,2619,2620,2621,2622,2623,2624,2625,2626,2627,2628,2629,2630,2631,2632,2633,2634,2635,2636,2637,2638,2639,2640,2641,2642,2643,2644,2645,2646,2647,2648,2649,2650,2651,2652,2653,2654,2655,2656,2657,2658,2659,2660,2661,2662,2663,2664,2665,2666,2667,2668,2669,2670,2671,2672,2673,2674,2675,2676,2677,2678,2679,2680,2681,2682,2683],"tree_info":[0,0,0,0,0,0,0,0,0,0,0,0,0,0,0,0,0,0,0,0,0,0,0,0,0,0,0,0,0,0,0,0,0,0,0,0,0,0,0,0,0,0,0,0,0,0,0,0,0,0,0,0,0,0,0,0,0,0,0,0,0,0,0,0,0,0,0,0,0,0,0,0,0,0,0,0,0,0,0,0,0,0,0,0,0,0,0,0,0,0,0,0,0,0,0,0,0,0,0,0,0,0,0,0,0,0,0,0,0,0,0,0,0,0,0,0,0,0,0,0,0,0,0,0,0,0,0,0,0,0,0,0,0,0,0,0,0,0,0,0,0,0,0,0,0,0,0,0,0,0,0,0,0,0,0,0,0,0,0,0,0,0,0,0,0,0,0,0,0,0,0,0,0,0,0,0,0,0,0,0,0,0,0,0,0,0,0,0,0,0,0,0,0,0,0,0,0,0,0,0,0,0,0,0,0,0,0,0,0,0,0,0,0,0,0,0,0,0,0,0,0,0,0,0,0,0,0,0,0,0,0,0,0,0,0,0,0,0,0,0,0,0,0,0,0,0,0,0,0,0,0,0,0,0,0,0,0,0,0,0,0,0,0,0,0,0,0,0,0,0,0,0,0,0,0,0,0,0,0,0,0,0,0,0,0,0,0,0,0,0,0,0,0,0,0,0,0,0,0,0,0,0,0,0,0,0,0,0,0,0,0,0,0,0,0,0,0,0,0,0,0,0,0,0,0,0,0,0,0,0,0,0,0,0,0,0,0,0,0,0,0,0,0,0,0,0,0,0,0,0,0,0,0,0,0,0,0,0,0,0,0,0,0,0,0,0,0,0,0,0,0,0,0,0,0,0,0,0,0,0,0,0,0,0,0,0,0,0,0,0,0,0,0,0,0,0,0,0,0,0,0,0,0,0,0,0,0,0,0,0,0,0,0,0,0,0,0,0,0,0,0,0,0,0,0,0,0,0,0,0,0,0,0,0,0,0,0,0,0,0,0,0,0,0,0,0,0,0,0,0,0,0,0,0,0,0,0,0,0,0,0,0,0,0,0,0,0,0,0,0,0,0,0,0,0,0,0,0,0,0,0,0,0,0,0,0,0,0,0,0,0,0,0,0,0,0,0,0,0,0,0,0,0,0,0,0,0,0,0,0,0,0,0,0,0,0,0,0,0,0,0,0,0,0,0,0,0,0,0,0,0,0,0,0,0,0,0,0,0,0,0,0,0,0,0,0,0,0,0,0,0,0,0,0,0,0,0,0,0,0,0,0,0,0,0,0,0,0,0,0,0,0,0,0,0,0,0,0,0,0,0,0,0,0,0,0,0,0,0,0,0,0,0,0,0,0,0,0,0,0,0,0,0,0,0,0,0,0,0,0,0,0,0,0,0,0,0,0,0,0,0,0,0,0,0,0,0,0,0,0,0,0,0,0,0,0,0,0,0,0,0,0,0,0,0,0,0,0,0,0,0,0,0,0,0,0,0,0,0,0,0,0,0,0,0,0,0,0,0,0,0,0,0,0,0,0,0,0,0,0,0,0,0,0,0,0,0,0,0,0,0,0,0,0,0,0,0,0,0,0,0,0,0,0,0,0,0,0,0,0,0,0,0,0,0,0,0,0,0,0,0,0,0,0,0,0,0,0,0,0,0,0,0,0,0,0,0,0,0,0,0,0,0,0,0,0,0,0,0,0,0,0,0,0,0,0,0,0,0,0,0,0,0,0,0,0,0,0,0,0,0,0,0,0,0,0,0,0,0,0,0,0,0,0,0,0,0,0,0,0,0,0,0,0,0,0,0,0,0,0,0,0,0,0,0,0,0,0,0,0,0,0,0,0,0,0,0,0,0,0,0,0,0,0,0,0,0,0,0,0,0,0,0,0,0,0,0,0,0,0,0,0,0,0,0,0,0,0,0,0,0,0,0,0,0,0,0,0,0,0,0,0,0,0,0,0,0,0,0,0,0,0,0,0,0,0,0,0,0,0,0,0,0,0,0,0,0,0,0,0,0,0,0,0,0,0,0,0,0,0,0,0,0,0,0,0,0,0,0,0,0,0,0,0,0,0,0,0,0,0,0,0,0,0,0,0,0,0,0,0,0,0,0,0,0,0,0,0,0,0,0,0,0,0,0,0,0,0,0,0,0,0,0,0,0,0,0,0,0,0,0,0,0,0,0,0,0,0,0,0,0,0,0,0,0,0,0,0,0,0,0,0,0,0,0,0,0,0,0,0,0,0,0,0,0,0,0,0,0,0,0,0,0,0,0,0,0,0,0,0,0,0,0,0,0,0,0,0,0,0,0,0,0,0,0,0,0,0,0,0,0,0,0,0,0,0,0,0,0,0,0,0,0,0,0,0,0,0,0,0,0,0,0,0,0,0,0,0,0,0,0,0,0,0,0,0,0,0,0,0,0,0,0,0,0,0,0,0,0,0,0,0,0,0,0,0,0,0,0,0,0,0,0,0,0,0,0,0,0,0,0,0,0,0,0,0,0,0,0,0,0,0,0,0,0,0,0,0,0,0,0,0,0,0,0,0,0,0,0,0,0,0,0,0,0,0,0,0,0,0,0,0,0,0,0,0,0,0,0,0,0,0,0,0,0,0,0,0,0,0,0,0,0,0,0,0,0,0,0,0,0,0,0,0,0,0,0,0,0,0,0,0,0,0,0,0,0,0,0,0,0,0,0,0,0,0,0,0,0,0,0,0,0,0,0,0,0,0,0,0,0,0,0,0,0,0,0,0,0,0,0,0,0,0,0,0,0,0,0,0,0,0,0,0,0,0,0,0,0,0,0,0,0,0,0,0,0,0,0,0,0,0,0,0,0,0,0,0,0,0,0,0,0,0,0,0,0,0,0,0,0,0,0,0,0,0,0,0,0,0,0,0,0,0,0,0,0,0,0,0,0,0,0,0,0,0,0,0,0,0,0,0,0,0,0,0,0,0,0,0,0,0,0,0,0,0,0,0,0,0,0,0,0,0,0,0,0,0,0,0,0,0,0,0,0,0,0,0,0,0,0,0,0,0,0,0,0,0,0,0,0,0,0,0,0,0,0,0,0,0,0,0,0,0,0,0,0,0,0,0,0,0,0,0,0,0,0,0,0,0,0,0,0,0,0,0,0,0,0,0,0,0,0,0,0,0,0,0,0,0,0,0,0,0,0,0,0,0,0,0,0,0,0,0,0,0,0,0,0,0,0,0,0,0,0,0,0,0,0,0,0,0,0,0,0,0,0,0,0,0,0,0,0,0,0,0,0,0,0,0,0,0,0,0,0,0,0,0,0,0,0,0,0,0,0,0,0,0,0,0,0,0,0,0,0,0,0,0,0,0,0,0,0,0,0,0,0,0,0,0,0,0,0,0,0,0,0,0,0,0,0,0,0,0,0,0,0,0,0,0,0,0,0,0,0,0,0,0,0,0,0,0,0,0,0,0,0,0,0,0,0,0,0,0,0,0,0,0,0,0,0,0,0,0,0,0,0,0,0,0,0,0,0,0,0,0,0,0,0,0,0,0,0,0,0,0,0,0,0,0,0,0,0,0,0,0,0,0,0,0,0,0,0,0,0,0,0,0,0,0,0,0,0,0,0,0,0,0,0,0,0,0,0,0,0,0,0,0,0,0,0,0,0,0,0,0,0,0,0,0,0,0,0,0,0,0,0,0,0,0,0,0,0,0,0,0,0,0,0,0,0,0,0,0,0,0,0,0,0,0,0,0,0,0,0,0,0,0,0,0,0,0,0,0,0,0,0,0,0,0,0,0,0,0,0,0,0,0,0,0,0,0,0,0,0,0,0,0,0,0,0,0,0,0,0,0,0,0,0,0,0,0,0,0,0,0,0,0,0,0,0,0,0,0,0,0,0,0,0,0,0,0,0,0,0,0,0,0,0,0,0,0,0,0,0,0,0,0,0,0,0,0,0,0,0,0,0,0,0,0,0,0,0,0,0,0,0,0,0,0,0,0,0,0,0,0,0,0,0,0,0,0,0,0,0,0,0,0,0,0,0,0,0,0,0,0,0,0,0,0,0,0,0,0,0,0,0,0,0,0,0,0,0,0,0,0,0,0,0,0,0,0,0,0,0,0,0,0,0,0,0,0,0,0,0,0,0,0,0,0,0,0,0,0,0,0,0,0,0,0,0,0,0,0,0,0,0,0,0,0,0,0,0,0,0,0,0,0,0,0,0,0,0,0,0,0,0,0,0,0,0,0,0,0,0,0,0,0,0,0,0,0,0,0,0,0,0,0,0,0,0,0,0,0,0,0,0,0,0,0,0,0,0,0,0,0,0,0,0,0,0,0,0,0,0,0,0,0,0,0,0,0,0,0,0,0,0,0,0,0,0,0,0,0,0,0,0,0,0,0,0,0,0,0,0,0,0,0,0,0,0,0,0,0,0,0,0,0,0,0,0,0,0,0,0,0,0,0,0,0,0,0,0,0,0,0,0,0,0,0,0,0,0,0,0,0,0,0,0,0,0,0,0,0,0,0,0,0,0,0,0,0,0,0,0,0,0,0,0,0,0,0,0,0,0,0,0,0,0,0,0,0,0,0,0,0,0,0,0,0,0,0,0,0,0,0,0,0,0,0,0,0,0,0,0,0,0,0,0,0,0,0,0,0,0,0,0,0,0,0,0,0,0,0,0,0,0,0,0,0,0,0,0,0,0,0,0,0,0,0,0,0,0,0,0,0,0,0,0,0,0,0,0,0,0,0,0,0,0,0,0,0,0,0,0,0,0,0,0,0,0,0,0,0,0,0,0,0,0,0,0,0,0,0,0,0,0,0,0,0,0,0,0,0,0,0,0,0,0,0,0,0,0,0,0,0,0,0,0,0,0,0,0,0,0,0,0,0,0,0,0,0,0,0,0,0,0,0,0,0,0,0,0,0,0,0,0,0,0,0,0,0,0,0,0,0,0,0,0,0,0,0,0,0,0,0,0,0,0,0,0,0,0,0,0,0,0,0,0,0,0,0,0,0,0,0,0,0,0,0,0,0,0,0,0,0,0,0,0,0,0,0,0,0,0,0,0,0,0,0,0,0,0,0,0,0,0,0,0,0,0,0,0,0,0,0,0,0,0,0,0,0,0,0,0,0,0,0,0,0,0,0,0,0,0,0,0,0,0,0,0,0,0,0,0,0,0,0,0,0,0,0,0,0,0,0,0,0,0,0,0,0,0,0,0,0,0,0,0,0,0,0,0,0,0,0,0,0,0,0,0,0,0,0,0,0,0,0,0,0,0,0,0,0,0,0,0,0,0,0,0,0,0,0,0,0,0,0,0,0,0,0,0,0,0,0,0,0,0,0,0,0,0,0,0,0,0,0,0,0,0,0,0,0,0,0,0,0,0,0,0,0,0,0,0,0,0,0,0,0,0,0,0,0,0,0,0,0,0,0,0,0,0,0,0,0,0,0,0,0,0,0,0,0,0,0,0,0,0,0,0,0,0,0,0,0,0,0,0,0,0,0,0,0,0,0,0,0,0,0,0,0,0,0,0,0,0,0,0,0,0,0,0,0,0,0,0,0,0,0,0,0,0,0,0,0,0,0,0,0,0,0,0,0,0,0,0,0,0,0,0,0,0,0,0,0,0,0,0,0,0,0,0,0,0,0,0,0,0,0,0,0,0,0,0,0,0,0,0,0,0,0,0,0,0,0,0,0,0,0,0,0,0,0,0,0,0,0,0,0,0,0,0,0,0,0,0,0,0,0,0,0,0,0,0,0,0,0,0,0,0,0,0,0,0,0,0,0,0,0,0,0,0,0,0,0,0,0,0,0,0,0,0,0,0,0,0,0,0,0,0,0,0,0,0,0,0,0,0,0,0,0,0,0,0,0,0,0,0,0,0,0,0,0,0,0,0,0,0,0,0,0,0,0,0,0,0,0,0,0,0,0,0,0,0,0,0,0,0,0,0,0,0,0,0,0,0,0,0,0,0,0,0,0,0,0,0,0,0,0,0,0,0,0,0,0,0,0,0,0,0,0,0,0,0,0,0,0,0,0,0,0,0,0,0,0,0,0,0,0,0,0,0],"trees":[{"base_weights":[1.860636E-2,6.211692E-1,-1.0251446E0,-8.839632E-2,1.3372229E0,-1.2731922E0,3.430685E-1,1.2687301E-2,-2.4469781E-1,1.6348578E-2,7.9845595E-1,-1.5399428E-2,-9.2658967E-1,1.0990128E-2,-3.167833E-1,1.5894462E-1,-6.764459E-1,9.065079E-1,-4.3278276E-3,-1.0893751E0,-4.530604E-1,-7.5697624E-3,1.5270835E-3,-1.5210772E-1,4.9055684E-3,-9.278697E-1,-1.4403463E-2,2.5858777E-4,1.0462761E-2,5.375239E-4,-1.127001E-2,-6.504517E-3,2.9911476E-3,2.838218E-3,-5.8165276E-1,-1.168206E-2,-5.4525128E-3,-4.221855E-3,4.0686927E-3,-8.225736E-3,7.2487077E-4],"categories":[],"categories_nodes":[],"categories_segments":[],"categories_sizes":[],"default_left":[0,0,0,0,0,0,0,0,0,0,0,0,0,0,0,0,0,0,0,0,0,0,0,0,0,0,0,0,0,0,0,0,0,0,0,0,0,0,0,0,0],"id":0,"left_children":[1,3,5,7,9,11,13,-1,15,-1,17,-1,19,-1,21,23,25,27,-1,29,31,-1,-1,33,-1,35,37,-1,-1,-1,-1,-1,-1,-1,39,-1,-1,-1,-1,-1,-1],"loss_changes":[4.8296677E2,2.4812161E2,9.710324E1,5.34301E1,3.382141E1,1.6533752E1,2.421886E1,0E0,3.974462E1,0E0,1.39212265E1,0E0,6.648735E0,0E0,6.118061E0,1.26103525E1,1.8023884E1,1.0418716E1,0E0,3.9359055E0,5.9948297E0,0E0,0E0,1.2583934E1,0E0,4.6855316E0,6.450947E0,0E0,0E0,0E0,0E0,0E0,0E0,0E0,5.650752E0,0E0,0E0,0E0,0E0,0E0,0E0],"parents":[2147483647,0,0,1,1,2,2,3,3,4,4,5,5,6,6,8,8,10,10,12,12,14,14,15,15,16,16,17,17,19,19,20,20,23,23,25,25,26,26,34,34],"right_children":[2,4,6,8,10,12,14,-1,16,-1,18,-1,20,-1,22,24,26,28,-1,30,32,-1,-1,34,-1,36,38,-1,-1,-1,-1,-1,-1,-1,40,-1,-1,-1,-1,-1,-1],"split_conditions":[1E0,6.315789E-1,7.631579E-1,1E0,1E0,5E-1,1E0,1.2687301E-2,1E0,1.6348578E-2,6.216216E-1,-1.5399428E-2,1E0,1.0990128E-2,1E0,1E0,1E0,3.5135135E-1,-4.3278276E-3,2.54E-1,6.8421054E-1,-7.5697624E-3,1.5270835E-3,1E0,4.9055684E-3,4.7368422E-1,1E0,2.5858777E-4,1.0462761E-2,5.375239E-4,-1.127001E-2,-6.504517E-3,2.9911476E-3,2.838218E-3,2.5675675E-1,-1.168206E-2,-5.4525128E-3,-4.221855E-3,4.0686927E-3,-8.225736E-3,7.2487077E-4],"split_indices":[12,5,5,11,3,5,3,0,3,0,1,0,7,0,9,9,7,1,0,0,5,0,0,6,0,5,9,0,0,0,0,0,0,0,1,0,0,0,0,0,0],"split_type":[0,0,0,0,0,0,0,0,0,0,0,0,0,0,0,0,0,0,0,0,0,0,0,0,0,0,0,0,0,0,0,0,0,0,0,0,0,0,0,0,0],"sum_hessian":[7.609818E2,4.8348843E2,2.7749338E2,2.4424416E2,2.3924428E2,2.3524438E2,4.224899E1,2.2499462E1,2.217447E2,1.4924643E2,8.999785E1,1.25746994E2,1.0949738E2,1.8749552E1,2.349944E1,1.1549724E2,1.0624746E2,8.3748E1,6.2498507E0,7.774814E1,3.174924E1,1.1249731E1,1.2249707E1,6.0248558E1,5.524868E1,7.574819E1,3.0499271E1,1.2249707E1,7.149829E1,2.249946E0,7.549819E1,2.5749384E1,5.9998565E0,3.0249277E1,2.9999283E1,4.1749E1,3.3999187E1,1.5749623E1,1.4749647E1,2.1499487E1,8.499797E0],"tree_param":{"num_deleted":"0","num_feature":"15","num_nodes":"41","size_leaf_vector":"1"}},{"base_weights":[-2.3932226E-3,5.6720954E-1,-1.0080906E0,-8.01034E-2,1.2171028E0,-1.2772546E0,2.3007244E-1,1.2961707E-2,-2.3615456E-1,1.2863873E0,-7.5892144E-4,-1.4942179E0,-7.542151E-1,-6.3336752E-3,8.3811533E-1,-5.172766E-1,4.3882307E-1,8.117648E-3,1.3892136E-2,-1.5783979E-2,-8.026779E-3,3.5980663E-3,-8.4593374E-1,1.0471547E0,-4.779903E-3,2.1577747E-1,-8.926535E-1,-5.436758E-3,6.362937E-1,-1.1953325E-2,-5.017681E-3,1.2547954E-2,1.8121412E-1,-4.0208367E-3,3.6631426E-1,-9.993046E-1,1.4760641E-3,8.351479E-3,-5.445923E-3,-3.6811926E-3,7.968005E-3,1.07599325E-1,7.750901E-3,-1.1161757E-2,-3.2843202E-3,5.9308666E-3,-2.1994386E-3],"categories":[],"categories_nodes":[],"categories_segments":[],"categories_sizes":[],"default_left":[0,0,0,0,0,0,0,0,0,0,0,0,0,0,0,0,0,0,0,0,0,0,0,0,0,0,0,0,0,0,0,0,0,0,0,0,0,0,0,0,0,0,0,0,0,0,0],"id":1,"left_children":[1,3,5,7,9,11,13,-1,15,17,-1,19,21,-1,23,25,27,-1,-1,-1,-1,-1,29,31,-1,33,35,-1,37,-1,-1,-1,39,-1,41,43,-1,-1,-1,-1,-1,45,-1,-1,-1,-1,-1],"loss_changes":[4.450436E2,2.0913988E2,9.489923E1,5.4867653E1,2.2795868E1,2.1829071E1,2.97438E1,0E0,4.42692E1,7.0612183E0,0E0,4.338806E0,8.863186E0,0E0,1.0895611E1,4.581359E1,1.4626389E1,0E0,0E0,0E0,0E0,0E0,6.039631E0,4.2030525E0,0E0,5.9063587E0,1.279351E1,0E0,1.5578274E1,0E0,0E0,0E0,4.509813E0,0E0,4.6767354E0,6.2066956E0,0E0,0E0,0E0,0E0,0E0,5.9866986E0,0E0,0E0,0E0,0E0,0E0],"parents":[2147483647,0,0,1,1,2,2,3,3,4,4,5,5,6,6,8,8,9,9,11,11,12,12,14,14,15,15,16,16,22,22,23,23,25,25,26,26,28,28,32,32,34,34,35,35,41,41],"right_children":[2,4,6,8,10,12,14,-1,16,18,-1,20,22,-1,24,26,28,-1,-1,-1,-1,-1,30,32,-1,34,36,-1,38,-1,-1,-1,40,-1,42,44,-1,-1,-1,-1,-1,46,-1,-1,-1,-1,-1],"split_conditions":[1E0,3.243243E-1,3.918919E-1,1E0,6.486486E-1,4.3047214E-1,2.5867203E-1,1.2961707E-2,1E0,3.6486486E-1,-7.5892144E-4,3.3783785E-1,4.4027138E-1,-6.3336752E-3,6.351351E-1,3.1921697E-1,3.9418298E-1,8.117648E-3,1.3892136E-2,-1.5783979E-2,-8.026779E-3,3.5980663E-3,2.2972973E-1,5.235368E-1,-4.779903E-3,1.6216215E-1,6.765402E-1,-5.436758E-3,5.7834494E-1,-1.1953325E-2,-5.017681E-3,1.2547954E-2,6.2484205E-1,-4.0208367E-3,6.580523E-1,8.157475E-1,1.4760641E-3,8.351479E-3,-5.445923E-3,-3.6811926E-3,7.968005E-3,1E0,7.750901E-3,-1.1161757E-2,-3.2843202E-3,5.9308666E-3,-2.1994386E-3],"split_indices":[12,1,1,11,1,2,2,0,7,1,0,1,2,0,1,2,2,0,0,0,0,0,1,2,0,1,2,0,2,0,0,0,2,0,4,4,0,0,0,0,0,6,0,0,0,0,0],"split_type":[0,0,0,0,0,0,0,0,0,0,0,0,0,0,0,0,0,0,0,0,0,0,0,0,0,0,0,0,0,0,0,0,0,0,0,0,0,0,0,0,0,0,0,0,0,0,0],"sum_hessian":[7.697056E2,4.9223706E2,2.774686E2,2.4798947E2,2.4424759E2,2.2797037E2,4.9498226E1,2.2499952E1,2.2548952E2,2.3199802E2,1.22495775E1,1.5622894E2,7.174142E1,2.0248947E1,2.9249279E1,1.5999066E2,6.5498856E1,4.724939E1,1.8474863E2,1.3498103E2,2.1247923E1,4.499442E0,6.7241974E1,2.5999523E1,3.2497556E0,5.4496956E1,1.05493706E2,9.7498255E0,5.5749035E1,2.874545E1,3.8496525E1,1.949963E1,6.4998937E0,9.249253E0,4.5247704E1,9.599429E1,9.499411E0,4.8749187E1,6.999844E0,3.9999218E0,2.499972E0,3.074838E1,1.4499324E1,7.949516E1,1.6499136E1,1.1499576E1,1.9248806E1],"tree_param":{"num_deleted":"0","num_feature":"15","num_nodes":"47","size_leaf_vector":"1"}},{"base_weights":[-1.8726462E-2,-6.7913353E-1,8.762216E-1,-1.361655E-1,-1.3683379E0,1.2495978E0,-1.8219224E-1,1.1698446E-2,-2.8289086E-1,-1.5277748E-2,-9.592975E-3,1.5437672E0,7.6827663E-1,-6.605489E-3,4.4727132E-1,-5.6974983E-1,3.6702472E-1,4.270611E-4,1.5646309E-2,8.7536323E-1,-4.7201253E-3,1.1103061E-2,-1.4821732E-1,-1.7572658E-1,-9.23238E-3,6.3731885E-1,1.3875678E-2,1.5453232E-2,6.980368E-1,3.5913524E-1,-6.1542443E-3,2.5879556E-1,-5.413103E-1,-2.531599E-3,7.512942E-3,-4.9669757E-3,2.9347336E-3,4.6068624E-1,1.0139222E-2,-4.5965747E-3,7.1091806E-3,-1.9108148E-3,5.9289723E-3,-8.323988E-3,-4.6712003E-4,6.531031E-2,7.1011656E-3,-1.6560439E-3,7.227569E-3],"categories":[],"categories_nodes":[],"categories_segments":[],"categories_sizes":[],"default_left":[0,0,0,0,0,0,0,0,0,0,0,0,0,0,0,0,0,0,0,0,0,0,0,0,0,0,0,0,0,0,0,0,0,0,0,0,0,0,0,0,0,0,0,0,0,0,0,0,0],"id":2,"left_children":[1,3,5,7,9,11,13,-1,15,-1,-1,17,19,-1,21,23,25,-1,-1,27,-1,-1,29,31,-1,33,35,-1,37,39,-1,41,43,-1,-1,-1,-1,45,-1,-1,-1,-1,-1,-1,-1,47,-1,-1,-1],"loss_changes":[4.5560913E2,1.6505774E2,1.3034787E2,4.9312428E1,7.0321655E0,2.9674072E1,2.7659405E1,0E0,4.3611145E1,0E0,0E0,4.020233E0,1.4722595E1,0E0,1.6581993E1,2.1620682E1,6.728923E0,0E0,0E0,6.7510376E0,0E0,0E0,6.524351E0,1.3381867E1,0E0,4.886671E0,5.5040164E0,0E0,4.043659E0,5.09586E0,0E0,6.3478994E0,6.1933975E0,0E0,0E0,0E0,0E0,4.8514423E0,0E0,0E0,0E0,0E0,0E0,0E0,0E0,4.2609925E0,0E0,0E0,0E0],"parents":[2147483647,0,0,1,1,2,2,3,3,4,4,5,5,6,6,8,8,11,11,12,12,14,14,15,15,16,16,19,19,22,22,23,23,25,25,26,26,28,28,29,29,31,31,32,32,37,37,45,45],"right_children":[2,4,6,8,10,12,14,-1,16,-1,-1,18,20,-1,22,24,26,-1,-1,28,-1,-1,30,32,-1,34,36,-1,38,40,-1,42,44,-1,-1,-1,-1,46,-1,-1,-1,-1,-1,-1,-1,48,-1,-1,-1],"split_conditions":[6.315789E-1,1E0,1E0,1E0,5E-1,1E0,7.894737E-1,1.1698446E-2,1E0,-1.5277748E-2,-9.592975E-3,1.2062752E-2,6.216216E-1,-6.605489E-3,1E0,1E0,1E0,4.270611E-4,1.5646309E-2,1E0,-4.7201253E-3,1.1103061E-2,1E0,1E0,-9.23238E-3,3.32E-1,2.027027E-1,1.5453232E-2,1E0,2.9217216E-1,-6.1542443E-3,4.410144E-1,6.52E-1,-2.531599E-3,7.512942E-3,-4.9669757E-3,2.9347336E-3,4.054054E-1,1.0139222E-2,-4.5965747E-3,7.1091806E-3,-1.9108148E-3,5.9289723E-3,-8.323988E-3,-4.6712003E-4,7.023561E-1,7.1011656E-3,-1.6560439E-3,7.227569E-3],"split_indices":[5,12,12,11,5,3,5,0,7,0,0,4,1,0,3,3,3,0,0,11,0,0,10,10,0,0,1,0,7,4,0,4,0,0,0,0,0,1,0,0,0,0,0,0,0,4,0,0,0],"split_type":[0,0,0,0,0,0,0,0,0,0,0,0,0,0,0,0,0,0,0,0,0,0,0,0,0,0,0,0,0,0,0,0,0,0,0,0,0,0,0,0,0,0,0,0,0,0,0,0,0],"sum_hessian":[7.638857E2,4.4016254E2,3.2372318E2,2.487288E2,1.9143373E2,2.3898247E2,8.474071E1,2.2498598E1,2.2623021E2,1.3044942E2,6.098431E1,1.4323666E2,9.5745804E1,4.824236E1,3.6498352E1,1.5748131E2,6.87489E1,2.2498024E0,1.4098686E2,8.9246025E1,6.4997797E0,1.59994955E1,2.0498856E1,7.724435E1,8.023696E1,3.6999653E1,3.1749243E1,1.2749444E1,7.6496574E1,9.999696E0,1.049916E1,3.5498867E1,4.174548E1,3.4999473E0,3.3499706E1,9.999702E0,2.174954E1,4.8997818E1,2.749876E1,2.4999037E0,7.499792E0,1.5499444E1,1.9999424E1,2.4497295E1,1.7248184E1,2.0999308E1,2.7998512E1,1.7249437E1,3.7498703E0],"tree_param":{"num_deleted":"0","num_feature":"15","num_nodes":"49","size_leaf_vector":"1"}},{"base_weights":[-2.502495E-2,5.332039E-1,-9.9123883E-1,-1.313755E-1,1.2086838E0,-1.2538657E0,2.1463718E-1,1.31349545E-2,-2.9460007E-1,1.542602E-2,6.6254246E-1,-1.5769552E-2,-8.4916914E-1,1.0755508E0,-3.9019355E-1,2.3185093E-2,-6.1286056E-1,8.325774E-1,-5.907146E-3,-1.1285301E-2,-4.6266693E-1,-0E0,1.2345844E-2,-9.2640575E-3,1.7836957E-1,3.2935435E-1,-3.8058802E-1,-7.744258E-1,2.516857E-3,1.5264162E-2,6.4630425E-1,-7.458232E-3,-1.0626779E-3,5.5809394E-3,-4.761639E-3,-5.681091E-3,5.1886755E-1,3.9852148E-1,-8.3130604E-1,-8.479873E-1,4.3454743E-3,-0E0,7.4367365E-3,6.9042775E-3,-3.5837793E-3,-4.170607E-3,6.24351E-3,-9.529081E-3,2.1286213E-3,-1.9614682E-1,-1.0823855E-2,-3.5042544E-3,5.3283516E-3],"categories":[],"categories_nodes":[],"categories_segments":[],"categories_sizes":[],"default_left":[0,0,0,0,0,0,0,0,0,0,0,0,0,0,0,0,0,0,0,0,0,0,0,0,0,0,0,0,0,0,0,0,0,0,0,0,0,0,0,0,0,0,0,0,0,0,0,0,0,0,0,0,0],"id":3,"left_children":[1,3,5,7,9,11,13,-1,15,-1,17,-1,19,21,23,25,27,29,-1,-1,31,-1,-1,-1,33,35,37,39,-1,-1,41,-1,-1,-1,-1,-1,43,45,47,49,-1,-1,-1,-1,-1,-1,-1,-1,-1,51,-1,-1,-1],"loss_changes":[4.1917636E2,2.2184164E2,9.130673E1,6.0394512E1,4.056546E1,2.5422302E1,2.9615097E1,0E0,2.3308771E1,0E0,2.2932262E1,0E0,9.915298E0,3.974842E0,1.1109314E1,1.4956653E1,1.6823696E1,7.5733643E0,0E0,0E0,4.914686E0,0E0,0E0,0E0,5.7403584E0,1.2764521E1,1.9520441E1,1.0076519E1,0E0,0E0,4.824457E0,0E0,0E0,0E0,0E0,0E0,9.822547E0,4.876533E0,5.22044E0,1.3267563E1,0E0,0E0,0E0,0E0,0E0,0E0,0E0,0E0,0E0,3.9091313E0,0E0,0E0,0E0],"parents":[2147483647,0,0,1,1,2,2,3,3,4,4,5,5,6,6,8,8,10,10,12,12,13,13,14,14,15,15,16,16,17,17,20,20,24,24,25,25,26,26,27,27,30,30,36,36,37,37,38,38,39,39,49,49],"right_children":[2,4,6,8,10,12,14,-1,16,-1,18,-1,20,22,24,26,28,30,-1,-1,32,-1,-1,-1,34,36,38,40,-1,-1,42,-1,-1,-1,-1,-1,44,46,48,50,-1,-1,-1,-1,-1,-1,-1,-1,-1,52,-1,-1,-1],"split_conditions":[1E0,3.243243E-1,3.918919E-1,1E0,1E0,2.205214E-1,1E0,1.31349545E-2,1E0,1.542602E-2,6.216216E-1,-1.5769552E-2,2.5675675E-1,4.054054E-1,2.5867203E-1,1E0,2.972973E-1,1E0,-5.907146E-3,-1.1285301E-2,1E0,-0E0,1.2345844E-2,-9.2640575E-3,5.405405E-1,3.9418298E-1,3.1240225E-1,7.015759E-1,2.516857E-3,1.5264162E-2,3.5135135E-1,-7.458232E-3,-1.0626779E-3,5.5809394E-3,-4.761639E-3,-5.681091E-3,5.771346E-1,1.7567568E-1,8.280932E-1,2.205214E-1,4.3454743E-3,-0E0,7.4367365E-3,6.9042775E-3,-3.5837793E-3,-4.170607E-3,6.24351E-3,-9.529081E-3,2.1286213E-3,8.6227465E-1,-1.0823855E-2,-3.5042544E-3,5.3283516E-3],"split_indices":[12,1,1,11,3,2,3,0,6,0,1,0,1,1,2,8,1,11,0,0,9,0,0,0,1,2,2,2,0,0,1,0,0,0,0,0,2,1,4,2,0,0,0,0,0,0,0,0,0,4,0,0,0],"split_type":[0,0,0,0,0,0,0,0,0,0,0,0,0,0,0,0,0,0,0,0,0,0,0,0,0,0,0,0,0,0,0,0,0,0,0,0,0,0,0,0,0,0,0,0,0,0,0,0,0,0,0,0,0],"sum_hessian":[7.700181E2,4.8890854E2,2.8110956E2,2.4771255E2,2.4119598E2,2.3086539E2,5.0244164E1,2.2495724E1,2.2521684E2,1.4545668E2,9.57393E1,1.2242003E2,1.08445366E2,1.9748117E1,3.0496046E1,1.13990875E2,1.1122596E2,8.549018E1,1.0249125E1,5.870975E1,4.973562E1,2.9999437E0,1.6748175E1,1.4747247E1,1.5748798E1,6.549853E1,4.8492344E1,9.42285E1,1.6997465E1,1.2497548E1,7.299263E1,2.5242733E1,2.4492884E1,1.04995985E1,5.2491994E0,9.999582E0,5.5498947E1,1.7748789E1,3.0743555E1,8.9979095E1,4.2494016E0,9.999923E0,6.299271E1,4.7249207E1,8.249741E0,2.99943E0,1.4749359E1,2.7993855E1,2.7497015E0,2.5746075E1,6.4233025E1,2.2996393E1,2.7496827E0],"tree_param":{"num_deleted":"0","num_feature":"15","num_nodes":"53","size_leaf_vector":"1"}},{"base_weights":[1.2011063E-2,5.8306974E-1,-9.919966E-1,-9.06333E-2,1.2890935E0,-1.2200959E0,2.6623484E-1,1.2578119E-2,-2.391076E-1,1.5425523E-2,8.5955775E-1,-1.441588E-2,-6.6265094E-1,-7.630143E-1,8.889645E-3,1.530519E-1,-6.4540946E-1,9.632848E-3,-3.6603173E-3,-7.566974E-1,2.635066E-3,9.081626E-2,-1.0643307E-2,4.4187856E-1,-1.6664326E-1,-7.4224037E-1,9.2711253E-4,3.3772402E-3,-8.4137195E-1,-6.891817E-3,7.8815585E-3,5.2725147E-3,-3.1730246E-3,-3.828332E-1,7.6278877E-3,-8.4437406E-1,-1.8579563E-1,-1.137085E-2,-5.0827283E-3,2.3466963E-3,-6.3272625E-1,-8.859543E-1,2.3403699E-3,4.9184477E-3,-6.3067083E-3,-8.246337E-3,6.363244E-3,-5.3554136E-1,-1.1543836E-2,-7.9149646E-1,-1.0041691E-1,2.152042E-3,-9.5043145E-3,-6.259512E-3,2.7582587E-3],"categories":[],"categories_nodes":[],"categories_segments":[],"categories_sizes":[],"default_left":[0,0,0,0,0,0,0,0,0,0,0,0,0,0,0,0,0,0,0,0,0,0,0,0,0,0,0,0,0,0,0,0,0,0,0,0,0,0,0,0,0,0,0,0,0,0,0,0,0,0,0,0,0,0,0],"id":4,"left_children":[1,3,5,7,9,11,13,-1,15,-1,17,-1,19,21,-1,23,25,-1,-1,27,-1,29,-1,31,33,35,-1,-1,37,-1,-1,-1,-1,39,-1,41,43,-1,-1,-1,45,47,-1,-1,-1,-1,-1,49,-1,51,53,-1,-1,-1,-1],"loss_changes":[4.4335275E2,2.3520668E2,8.178958E1,5.1986534E1,2.1082275E1,2.5586365E1,3.1741632E1,0E0,3.7611176E1,0E0,1.3792961E1,0E0,7.2924347E0,5.438072E0,0E0,1.1513157E1,8.633541E0,0E0,0E0,7.4746284E0,0E0,6.2918043E0,0E0,4.846553E0,1.2953353E1,5.0683975E0,0E0,0E0,4.01865E0,0E0,0E0,0E0,0E0,8.477268E0,0E0,4.70076E0,7.3797827E0,0E0,0E0,0E0,1.1019898E1,5.296898E0,0E0,0E0,0E0,0E0,0E0,4.321335E0,0E0,5.0770855E0,4.6881895E0,0E0,0E0,0E0,0E0],"parents":[2147483647,0,0,1,1,2,2,3,3,4,4,5,5,6,6,8,8,10,10,12,12,13,13,15,15,16,16,19,19,21,21,23,23,24,24,25,25,28,28,33,33,35,35,36,36,40,40,41,41,47,47,49,49,50,50],"right_children":[2,4,6,8,10,12,14,-1,16,-1,18,-1,20,22,-1,24,26,-1,-1,28,-1,30,-1,32,34,36,-1,-1,38,-1,-1,-1,-1,40,-1,42,44,-1,-1,-1,46,48,-1,-1,-1,-1,-1,50,-1,52,54,-1,-1,-1,-1],"split_conditions":[1E0,6.315789E-1,7.631579E-1,1E0,1E0,4.3047214E-1,2.5867203E-1,1.2578119E-2,1E0,1.5425523E-2,6.216216E-1,-1.441588E-2,7.105263E-1,1E0,8.889645E-3,1E0,8.9036375E-1,9.632848E-3,-3.6603173E-3,4.4240177E-1,2.635066E-3,4.4594595E-1,-1.0643307E-2,6.0607713E-1,2.972973E-1,5.7894737E-1,9.2711253E-4,3.3772402E-3,2.2972973E-1,-6.891817E-3,7.8815585E-3,5.2725147E-3,-3.1730246E-3,2.205214E-1,7.6278877E-3,7.183245E-1,4.0065944E-1,-1.137085E-2,-5.0827283E-3,2.3466963E-3,6.765402E-1,1E0,2.3403699E-3,4.9184477E-3,-6.3067083E-3,-8.246337E-3,6.363244E-3,1E0,-1.1543836E-2,1.5281112E-1,3.9572632E-1,2.152042E-3,-9.5043145E-3,-6.259512E-3,2.7582587E-3],"split_indices":[12,5,5,11,3,2,2,0,3,0,1,0,5,3,0,6,4,0,0,2,0,1,0,2,1,5,0,0,1,0,0,0,0,2,0,2,2,0,0,0,2,6,0,0,0,0,0,9,0,2,2,0,0,0,0],"split_type":[0,0,0,0,0,0,0,0,0,0,0,0,0,0,0,0,0,0,0,0,0,0,0,0,0,0,0,0,0,0,0,0,0,0,0,0,0,0,0,0,0,0,0,0,0,0,0,0,0,0,0,0,0,0,0],"sum_hessian":[7.6635706E2,4.8957986E2,2.767772E2,2.5193924E2,2.3764062E2,2.3453453E2,4.2242653E1,2.2240984E1,2.2969826E2,1.4341058E2,9.423004E1,1.6358003E2,7.09545E1,1.5496794E1,2.6745857E1,1.1773332E2,1.11964935E2,8.7730705E1,6.4993434E0,6.520562E1,5.7488823E0,4.499659E0,1.0997134E1,6.149501E1,5.6238316E1,9.9216705E1,1.2748228E1,3.7480218E0,6.1457596E1,1.9998692E0,2.49979E0,5.6495552E1,4.9994574E0,4.748868E1,8.749632E0,8.197044E1,1.7246264E1,2.772188E1,3.3735714E1,1.3498602E1,3.399008E1,7.972089E1,2.2495563E0,6.4990125E0,1.07472515E1,3.0740204E1,3.2498777E0,3.9491463E1,4.0229424E1,2.2744617E1,1.6746845E1,2.7495878E0,1.999503E1,6.24839E0,1.0498455E1],"tree_param":{"num_deleted":"0","num_feature":"15","num_nodes":"55","size_leaf_vector":"1"}},{"base_weights":[6.3229864E-3,5.5990195E-1,-9.846101E-1,8.8051665E-1,1.2637812E-1,-1.41116E-2,-5.039658E-1,6.783352E-1,1.2312549E0,1.3418621E-2,-5.2848477E-2,-2.2921582E-1,-7.588171E-1,1.1826913E-2,3.0822915E-1,-5.981549E-4,1.2654698E0,-3.4778067E-1,5.596796E-1,-5.606467E-1,-3.0550605E-2,1.0821715E-4,-8.50088E-3,1.3671084E-2,1.7252186E-1,1.3051391E-2,2.5350117E-4,4.2110803E-3,-7.991135E-1,-6.382762E-3,7.340908E-1,4.3492517E-3,-7.043107E-3,3.394006E-1,-3.974894E-3,3.781408E-2,9.29296E-3,-8.694333E-3,2.2440057E-3,8.56856E-3,-5.3988835E-3,5.8889785E-3,-3.5645373E-3,-2.0798051E-1,3.668598E-1,-3.916415E-1,1.5321027E-1,6.333158E-4,7.0308545E-3,2.8361287E-4,-7.4613993E-3,6.0259877E-3,-2.446327E-3],"categories":[],"categories_nodes":[],"categories_segments":[],"categories_sizes":[],"default_left":[0,0,0,0,0,0,0,0,0,0,0,0,0,0,0,0,0,0,0,0,0,0,0,0,0,0,0,0,0,0,0,0,0,0,0,0,0,0,0,0,0,0,0,0,0,0,0,0,0,0,0,0,0],"id":5,"left_children":[1,3,5,7,9,-1,11,13,15,-1,17,19,21,-1,23,-1,25,27,29,31,33,-1,-1,-1,35,-1,-1,-1,37,-1,39,-1,-1,41,-1,43,-1,-1,-1,-1,-1,-1,-1,45,47,49,51,-1,-1,-1,-1,-1,-1],"loss_changes":[4.2474207E2,6.84733E1,5.397455E1,1.685559E1,4.750712E1,0E0,8.712513E0,3.3661346E1,4.9149933E0,0E0,3.517941E1,4.4866753E0,5.0370903E0,0E0,1.5217652E1,0E0,4.3834534E0,4.688218E1,1.488419E1,4.8518906E0,7.0686717E0,0E0,0E0,0E0,1.0396092E1,0E0,0E0,0E0,6.8845825E0,0E0,1.0609776E1,0E0,0E0,5.25864E0,0E0,7.8406277E0,0E0,0E0,0E0,0E0,0E0,0E0,0E0,3.9253688E0,3.9158168E0,5.8830934E0,4.3052645E0,0E0,0E0,0E0,0E0,0E0,0E0],"parents":[2147483647,0,0,1,1,2,2,3,3,4,4,6,6,7,7,8,8,10,10,11,11,12,12,14,14,16,16,17,17,18,18,19,19,20,20,24,24,28,28,30,30,33,33,35,35,43,43,44,44,45,45,46,46],"right_children":[2,4,6,8,10,-1,12,14,16,-1,18,20,22,-1,24,-1,26,28,30,32,34,-1,-1,-1,36,-1,-1,-1,38,-1,40,-1,-1,42,-1,44,-1,-1,-1,-1,-1,-1,-1,46,48,50,52,-1,-1,-1,-1,-1,-1],"split_conditions":[1E0,1E0,2.4748977E-1,1E0,1E0,-1.41116E-2,1E0,3.2255152E-1,3.1240225E-1,1.3418621E-2,1E0,4.3047214E-1,3.94E-1,1.1826913E-2,1E0,-5.981549E-4,9.76E-1,3.2810885E-1,3.705154E-1,2.8811234E-1,5.1099324E-1,1.0821715E-4,-8.50088E-3,1.3671084E-2,6.5308094E-1,1.3051391E-2,2.5350117E-4,4.2110803E-3,7.096828E-1,-6.382762E-3,6.195649E-1,4.3492517E-3,-7.043107E-3,1E0,-3.974894E-3,1E0,9.29296E-3,-8.694333E-3,2.2440057E-3,8.56856E-3,-5.3988835E-3,5.8889785E-3,-3.5645373E-3,6.64E-1,6.386739E-1,4.74E-1,4.8499894E-1,6.333158E-4,7.0308545E-3,2.8361287E-4,-7.4613993E-3,6.0259877E-3,-2.446327E-3],"split_indices":[12,3,2,7,11,0,3,2,2,0,7,2,0,0,11,0,0,2,2,2,2,0,0,0,2,0,0,0,2,0,2,0,0,6,0,9,0,0,0,0,0,0,0,0,4,0,2,0,0,0,0,0,0],"split_type":[0,0,0,0,0,0,0,0,0,0,0,0,0,0,0,0,0,0,0,0,0,0,0,0,0,0,0,0,0,0,0,0,0,0,0,0,0,0,0,0,0,0,0,0,0,0,0,0,0,0,0,0,0],"sum_hessian":[7.673986E2,4.9346887E2,2.7392975E2,2.8130963E2,2.1215924E2,1.4129076E2,1.3263899E2,1.8537465E2,9.593499E1,2.4483637E1,1.876756E2,6.744258E1,6.51964E1,7.494711E1,1.1042753E2,2.248851E0,9.368614E1,1.2793915E2,5.9736454E1,2.247405E1,4.4968533E1,6.994314E0,5.820209E1,8.741922E0,1.0168561E2,9.043784E1,3.2482972E0,4.723522E1,8.0703926E1,6.24854E0,5.3487915E1,1.748845E0,2.0725206E1,2.223609E1,2.2732443E1,8.969291E1,1.1992698E1,7.62049E1,4.499023E0,4.9988754E1,3.49916E0,1.6989706E1,5.2463846E0,5.1713238E1,3.797967E1,3.4474056E1,1.7239182E1,2.2488312E1,1.5491361E1,1.6986446E1,1.748761E1,7.4954267E0,9.743755E0],"tree_param":{"num_deleted":"0","num_feature":"15","num_nodes":"53","size_leaf_vector":"1"}},{"base_weights":[1.4516289E-2,-5.8356386E-1,9.499963E-1,-1.8333636E-2,-1.3277535E0,1.2803781E0,-2.9053004E-2,1.2985524E-2,-1.6985466E-1,-1.51465265E-2,-8.215454E-1,1.5695326E-2,7.752231E-1,-8.358781E-1,5.172508E-1,1.8940672E-1,-5.734137E-1,2.5990817E-3,-9.143797E-3,4.700987E-1,1.1746071E-2,-1.1146042E-3,-1.1991341E-2,6.099689E-4,9.177569E-3,-5.9763733E-2,7.101732E-1,-7.514209E-1,-3.8402542E-2,9.770326E-3,9.5154524E-2,2.2566164E-1,-6.674705E-3,-3.5598007E-1,6.7104828E-3,-2.7751937E-3,8.126389E-3,1.5591519E-4,-1.0626053E0,1.8467359E-1,-7.877944E-3,-1.8438914E-1,5.5736606E-3,5.683265E-3,-3.5467413E-3,1.3452871E-3,-5.760317E-1,-1.1305313E-2,5.2781176E-4,-7.0152753E-3,5.0318306E-3,-5.834125E-3,3.6909385E-3,-6.726794E-1,3.347325E-3,-7.9508405E-3,1.02552176E-1,-5.1221894E-3,6.9357185E-3],"categories":[],"categories_nodes":[],"categories_segments":[],"categories_sizes":[],"default_left":[0,0,0,0,0,0,0,0,0,0,0,0,0,0,0,0,0,0,0,0,0,0,0,0,0,0,0,0,0,0,0,0,0,0,0,0,0,0,0,0,0,0,0,0,0,0,0,0,0,0,0,0,0,0,0,0,0,0,0],"id":6,"left_children":[1,3,5,7,9,11,13,-1,15,-1,17,-1,19,21,23,25,27,-1,-1,29,-1,-1,-1,31,-1,33,35,37,39,-1,41,43,-1,45,-1,-1,-1,-1,47,49,-1,51,-1,-1,-1,-1,53,-1,-1,-1,-1,-1,-1,55,-1,-1,57,-1,-1],"loss_changes":[4.31707E2,1.9754504E2,9.775278E1,5.463812E1,1.4323975E1,2.8130402E1,3.65054E1,0E0,3.6189297E1,0E0,7.2696533E0,0E0,8.582668E0,8.063438E0,9.994289E0,1.7509846E1,1.08930435E1,0E0,0E0,1.0231792E1,0E0,0E0,0E0,4.23366E0,0E0,2.085007E1,5.3092422E0,2.1154552E1,6.200315E0,0E0,5.1898537E0,5.081253E0,0E0,7.759618E0,0E0,0E0,0E0,0E0,5.1707687E0,9.177502E0,0E0,6.3818336E0,0E0,0E0,0E0,0E0,5.1106167E0,0E0,0E0,0E0,0E0,0E0,0E0,4.703661E0,0E0,0E0,4.563527E0,0E0,0E0],"parents":[2147483647,0,0,1,1,2,2,3,3,4,4,5,5,6,6,8,8,10,10,12,12,13,13,14,14,15,15,16,16,19,19,23,23,25,25,26,26,27,27,28,28,30,30,31,31,33,33,38,38,39,39,41,41,46,46,53,53,56,56],"right_children":[2,4,6,8,10,12,14,-1,16,-1,18,-1,20,22,24,26,28,-1,-1,30,-1,-1,-1,32,-1,34,36,38,40,-1,42,44,-1,46,-1,-1,-1,-1,48,50,-1,52,-1,-1,-1,-1,54,-1,-1,-1,-1,-1,-1,56,-1,-1,58,-1,-1],"split_conditions":[6.5789473E-1,1E0,1E0,1E0,4.3047214E-1,1E0,1.5281112E-1,1.2985524E-2,1E0,-1.51465265E-2,4.4240177E-1,1.5695326E-2,1E0,1E0,7.894737E-1,5.5263156E-1,1E0,2.5990817E-3,-9.143797E-3,2.205214E-1,1.1746071E-2,-1.1146042E-3,-1.1991341E-2,8.36E-1,9.177569E-3,1E0,6.7906186E-2,3.0409482E-1,5.6607985E-1,9.770326E-3,8.684211E-1,6.6526383E-1,-6.674705E-3,2.3919596E-1,6.7104828E-3,-2.7751937E-3,8.126389E-3,1.5591519E-4,7.183245E-1,3.88866E-1,-7.877944E-3,5.119771E-1,5.5736606E-3,5.683265E-3,-3.5467413E-3,1.3452871E-3,6.765402E-1,-1.1305313E-2,5.2781176E-4,-7.0152753E-3,5.0318306E-3,-5.834125E-3,3.6909385E-3,8.232593E-1,3.347325E-3,-7.9508405E-3,3.9473686E-1,-5.1221894E-3,6.9357185E-3],"split_indices":[5,12,12,11,2,3,2,0,3,0,2,0,7,3,5,5,7,0,0,2,0,0,0,0,0,7,4,2,2,0,5,4,0,2,0,0,0,0,2,2,0,4,0,0,0,0,2,0,0,0,0,0,0,4,0,0,5,0,0],"split_type":[0,0,0,0,0,0,0,0,0,0,0,0,0,0,0,0,0,0,0,0,0,0,0,0,0,0,0,0,0,0,0,0,0,0,0,0,0,0,0,0,0,0,0,0,0,0,0,0,0,0,0,0,0,0,0,0,0,0,0],"sum_hessian":[7.6446454E2,4.6699634E2,2.974682E2,2.6762054E2,1.9937581E2,2.2176674E2,7.570147E1,2.4723408E1,2.4289713E2,1.4019034E2,5.918548E1,1.3605672E2,8.5710014E1,2.9967258E1,4.5734207E1,1.2921063E2,1.1368649E2,3.9980307E0,5.5187447E1,5.3230286E1,3.247973E1,1.173823E1,1.8229029E1,2.1740852E1,2.3993355E1,8.922538E1,3.9985256E1,8.393954E1,2.9746956E1,1.999011E1,3.3240177E1,1.8242123E1,3.49873E0,6.4980934E1,2.4244444E1,2.999065E0,3.698619E1,2.4993832E1,5.8945705E1,2.4747591E1,4.999364E0,2.1744497E1,1.1495679E1,1.1745163E1,6.49696E0,2.0248728E1,4.473221E1,5.569617E1,3.2495358E0,5.248786E0,1.9498806E1,1.2747366E1,8.997131E0,4.1482372E1,3.2498372E0,3.5984093E1,5.4982796E0,2.7490125E0,2.7492673E0],"tree_param":{"num_deleted":"0","num_feature":"15","num_nodes":"59","size_leaf_vector":"1"}},{"base_weights":[1.2372094E-2,-5.91217E-1,9.018532E-1,-5.3213965E-2,-1.3235846E0,1.2248851E0,-5.3467587E-2,-1.7161384E-1,1.1240887E-2,-1.4747507E-2,-9.751032E-3,1.5656566E-2,6.609009E-1,-5.943107E-1,4.3292427E-1,-4.2047855E-1,3.9696035E-1,8.62377E-1,-7.2893105E-3,-7.7436212E-3,-1.7355925E-6,1.2580176E-2,-1.8690087E-1,-3.7709933E-2,-8.0601203E-1,6.2100366E-3,7.3886745E-2,1.3442269E-4,9.3275895E-3,2.818253E-3,-7.4782586E-3,-2.944999E-1,7.0030936E-3,-8.458804E-3,4.5927153E-3,-2.6834595E-1,5.604436E-3,-5.071447E-3,-2.4657831E-5,-5.1813945E-3,3.0495073E-3],"categories":[],"categories_nodes":[],"categories_segments":[],"categories_sizes":[],"default_left":[0,0,0,0,0,0,0,0,0,0,0,0,0,0,0,0,0,0,0,0,0,0,0,0,0,0,0,0,0,0,0,0,0,0,0,0,0,0,0,0,0],"id":7,"left_children":[1,3,5,7,9,11,13,15,-1,-1,-1,-1,17,19,21,23,25,27,-1,-1,-1,-1,29,31,33,-1,35,-1,-1,-1,-1,37,-1,-1,-1,39,-1,-1,-1,-1,-1],"loss_changes":[4.1638556E2,1.8144165E2,9.7256226E1,3.8125698E1,4.7104187E0,4.098996E1,2.2628426E1,3.577246E1,0E0,0E0,0E0,0E0,2.875898E1,4.192231E0,2.4189545E1,2.5524565E1,5.2823725E0,4.8018265E0,0E0,0E0,0E0,0E0,8.398422E0,1.8023872E1,5.8212357E0,0E0,6.5871577E0,0E0,0E0,0E0,0E0,4.2805915E0,0E0,0E0,0E0,3.9323163E0,0E0,0E0,0E0,0E0,0E0],"parents":[2147483647,0,0,1,1,2,2,3,3,4,4,5,5,6,6,7,7,12,12,13,13,14,14,15,15,16,16,17,17,22,22,23,23,24,24,26,26,31,31,35,35],"right_children":[2,4,6,8,10,12,14,16,-1,-1,-1,-1,18,20,22,24,26,28,-1,-1,-1,-1,30,32,34,-1,36,-1,-1,-1,-1,38,-1,-1,-1,40,-1,-1,-1,-1,-1],"split_conditions":[3.3783785E-1,1E0,1E0,1E0,2.5675675E-1,1E0,4.054054E-1,1E0,1.1240887E-2,-1.4747507E-2,-9.751032E-3,1.5656566E-2,6.216216E-1,1E0,1E0,1E0,1E0,3.5135135E-1,-7.2893105E-3,-7.7436212E-3,-1.7355925E-6,1.2580176E-2,5.540541E-1,2.972973E-1,1E0,6.2100366E-3,2.5675675E-1,1.3442269E-4,9.3275895E-3,2.818253E-3,-7.4782586E-3,1E0,7.0030936E-3,-8.458804E-3,4.5927153E-3,6.94E-1,5.604436E-3,-5.071447E-3,-2.4657831E-5,-5.1813945E-3,3.0495073E-3],"split_indices":[1,12,12,13,1,3,1,7,0,0,0,0,1,7,3,3,3,1,0,0,0,0,1,1,14,0,1,0,0,0,0,9,0,0,0,0,0,0,0,0,0],"split_type":[0,0,0,0,0,0,0,0,0,0,0,0,0,0,0,0,0,0,0,0,0,0,0,0,0,0,0,0,0,0,0,0,0,0,0,0,0,0,0,0,0],"sum_hessian":[7.684314E2,4.583456E2,3.1008575E2,2.665776E2,1.91768E2,2.311532E2,7.8932556E1,2.4511145E2,2.1466152E1,1.25397354E2,6.637066E1,1.3996248E2,9.119072E1,3.721116E1,4.1721397E1,1.7138516E2,7.372629E1,8.0944E1,1.024672E1,2.746447E1,9.746688E0,1.6490513E1,2.5230885E1,8.821434E1,8.317082E1,4.123286E1,3.249343E1,6.748283E0,7.419572E1,1.4492508E1,1.0738377E1,6.7224686E1,2.098965E1,8.1922806E1,1.2480174E0,1.9746086E1,1.2747344E1,3.6980656E1,3.0244032E1,1.4246741E1,5.4993443E0],"tree_param":{"num_deleted":"0","num_feature":"15","num_nodes":"41","size_leaf_vector":"1"}},{"base_weights":[5.214254E-3,-5.851527E-1,9.140955E-1,-5.4355845E-2,-1.3173367E-2,1.2500621E0,-9.555555E-2,1.2332756E-2,-2.119393E-1,1.5124174E-2,8.1861854E-1,-6.5927E-1,4.8452082E-1,1.3464303E-1,-5.8484256E-1,1.4474907E-2,6.529291E-1,5.2418974E-3,-7.6918416E-3,1.1748289E-2,-1.07677415E-1,-5.364001E-2,6.930689E-3,-8.0322206E-1,-2.3267637E-1,3.4077522E-1,9.0173585E-3,-5.5295234E-3,3.4133193E-1,3.432286E-3,-4.3809202E-1,-9.139119E-3,1.9770348E-1,4.6991077E-1,-4.077475E-3,7.1434927E-1,-1.507022E-1,-5.6461506E-3,7.680913E-3,-7.4011697E-3,4.3957883E-5,6.9593787E-3,-4.129397E-3,8.311085E-3,-3.7609888E-3,1.8385302E-1,1.1193715E-2,-4.1258167E-3,6.6339034E-3,7.5585893E-3,-4.1874284E-3],"categories":[],"categories_nodes":[],"categories_segments":[],"categories_sizes":[],"default_left":[0,0,0,0,0,0,0,0,0,0,0,0,0,0,0,0,0,0,0,0,0,0,0,0,0,0,0,0,0,0,0,0,0,0,0,0,0,0,0,0,0,0,0,0,0,0,0,0,0,0,0],"id":8,"left_children":[1,3,5,7,-1,9,11,-1,13,-1,15,17,19,21,23,-1,25,-1,-1,-1,27,29,-1,31,33,35,-1,-1,37,-1,39,-1,41,43,-1,45,47,-1,-1,-1,-1,-1,-1,-1,-1,49,-1,-1,-1,-1,-1],"loss_changes":[4.192044E2,1.8344739E2,1.0504761E2,5.7170403E1,0E0,2.1332672E1,2.7300844E1,0E0,3.2824158E1,0E0,6.1750526E0,6.961563E0,1.7530159E1,1.4219078E1,8.49844E0,0E0,5.0407333E0,0E0,0E0,0E0,5.7577596E0,1.6145819E1,0E0,8.923931E0,7.05479E0,8.300219E0,0E0,0E0,7.1789603E0,0E0,7.349366E0,0E0,4.117302E0,4.7899323E0,0E0,4.3716784E0,5.3887568E0,0E0,0E0,0E0,0E0,0E0,0E0,0E0,0E0,6.4441137E0,0E0,0E0,0E0,0E0,0E0],"parents":[2147483647,0,0,1,1,2,2,3,3,5,5,6,6,8,8,10,10,11,11,12,12,13,13,14,14,16,16,20,20,21,21,23,23,24,24,25,25,28,28,30,30,32,32,33,33,35,35,36,36,45,45],"right_children":[2,4,6,8,-1,10,12,-1,14,-1,16,18,20,22,24,-1,26,-1,-1,-1,28,30,-1,32,34,36,-1,-1,38,-1,40,-1,42,44,-1,46,48,-1,-1,-1,-1,-1,-1,-1,-1,50,-1,-1,-1,-1,-1],"split_conditions":[6.5789473E-1,1E0,1E0,1E0,-1.3173367E-2,1E0,7.894737E-1,1.2332756E-2,1E0,1.5124174E-2,1E0,2.94E-1,1E0,5.7894737E-1,5E-1,1.4474907E-2,8.1578946E-1,5.2418974E-3,-7.6918416E-3,1.1748289E-2,1E0,1E0,6.930689E-3,8.9725417E-1,3.88E-1,1E0,9.0173585E-3,-5.5295234E-3,2.9217216E-1,3.432286E-3,1E0,-9.139119E-3,5.84E-1,1E0,-4.077475E-3,5.024743E-1,7.085419E-1,-5.6461506E-3,7.680913E-3,-7.4011697E-3,4.3957883E-5,6.9593787E-3,-4.129397E-3,8.311085E-3,-3.7609888E-3,2.2750002E-1,1.1193715E-2,-4.1258167E-3,6.6339034E-3,7.5585893E-3,-4.1874284E-3],"split_indices":[5,12,12,11,0,3,5,0,3,0,11,0,3,5,5,0,5,0,0,0,9,6,0,4,0,6,0,0,4,0,9,0,0,8,0,4,4,0,0,0,0,0,0,0,0,4,0,0,0,0,0],"split_type":[0,0,0,0,0,0,0,0,0,0,0,0,0,0,0,0,0,0,0,0,0,0,0,0,0,0,0,0,0,0,0,0,0,0,0,0,0,0,0,0,0,0,0,0,0,0,0,0,0,0,0],"sum_hessian":[7.74109E2,4.69902E2,3.0420703E2,2.7477295E2,1.9512906E2,2.2778345E2,7.642357E1,2.7196276E1,2.4757669E2,1.3586346E2,9.191999E1,3.8700245E1,3.7723324E1,1.291869E2,1.18389786E2,1.3227511E1,7.869248E1,1.9984157E0,3.6701828E1,1.5986334E1,2.1736992E1,9.8705986E1,3.0480915E1,6.992344E1,4.8466347E1,3.8977386E1,3.971509E1,1.074216E1,1.0994832E1,4.848291E1,5.022308E1,6.342678E1,6.4966583E0,8.24479E0,4.0221554E1,2.1483885E1,1.7493502E1,2.9978914E0,7.99694E0,2.8727964E1,2.1495113E1,3.4982755E0,2.998383E0,5.9969635E0,2.2478263E0,1.1741645E1,9.74224E0,1.4745219E1,2.748283E0,5.7453003E0,5.996344E0],"tree_param":{"num_deleted":"0","num_feature":"15","num_nodes":"51","size_leaf_vector":"1"}},{"base_weights":[6.6900766E-3,-6.212261E-1,8.594761E-1,-1.3577455E-1,-1.2994726E0,1.2192947E0,-1.7629497E-1,2.1893646E-1,-5.2893806E-1,-1.5028117E-2,-9.2140925E-1,1.4904202E-2,7.387909E-1,-9.435411E-3,3.3402127E-1,4.930753E-3,-5.35091E-2,-7.7888316E-1,1.047625E-1,2.5985274E-3,-9.830023E-3,8.277488E-3,-4.0332275E-3,-2.5107374E-3,9.814605E-3,3.5356998E-3,-4.5342728E-1,-1.428304E-1,-1.0562577E-2,-8.920183E-3,3.552556E-1,9.99529E-4,-6.60719E-1,-5.0082467E-3,2.6970636E-3,-1.7395399E-3,6.0969E-3,-8.314951E-3,1.195923E-3],"categories":[],"categories_nodes":[],"categories_segments":[],"categories_sizes":[],"default_left":[0,0,0,0,0,0,0,0,0,0,0,0,0,0,0,0,0,0,0,0,0,0,0,0,0,0,0,0,0,0,0,0,0,0,0,0,0,0,0],"id":9,"left_children":[1,3,5,7,9,11,13,15,17,-1,19,-1,21,-1,23,-1,25,27,29,-1,-1,-1,-1,-1,-1,-1,31,33,-1,-1,35,-1,37,-1,-1,-1,-1,-1,-1],"loss_changes":[4.099921E2,1.4420831E2,1.2201953E2,3.6874577E1,8.706421E0,2.7134918E1,3.5167385E1,1.0599247E1,2.0246475E1,0E0,6.403637E0,0E0,1.0857162E1,0E0,2.1657036E1,0E0,1.2422508E1,1.5160549E1,1.0550988E1,0E0,0E0,0E0,0E0,0E0,0E0,0E0,4.765525E0,5.212235E0,0E0,0E0,4.9428144E0,0E0,4.3300343E0,0E0,0E0,0E0,0E0,0E0,0E0],"parents":[2147483647,0,0,1,1,2,2,3,3,4,4,5,5,6,6,7,7,8,8,10,10,12,12,14,14,16,16,17,17,18,18,26,26,27,27,30,30,32,32],"right_children":[2,4,6,8,10,12,14,16,18,-1,20,-1,22,-1,24,-1,26,28,30,-1,-1,-1,-1,-1,-1,-1,32,34,-1,-1,36,-1,38,-1,-1,-1,-1,-1,-1],"split_conditions":[6.315789E-1,1E0,1E0,1E0,3.3195373E-1,1E0,1.5281112E-1,1E0,1E0,-1.5028117E-2,3.543903E-1,1.4904202E-2,6.216216E-1,-9.435411E-3,7.894737E-1,4.930753E-3,1E0,3.1921697E-1,3.88866E-1,2.5985274E-3,-9.830023E-3,8.277488E-3,-4.0332275E-3,-2.5107374E-3,9.814605E-3,3.5356998E-3,1.5281112E-1,4.7368422E-1,-1.0562577E-2,-8.920183E-3,2.027027E-1,9.99529E-4,5.8693993E-1,-5.0082467E-3,2.6970636E-3,-1.7395399E-3,6.0969E-3,-8.314951E-3,1.195923E-3],"split_indices":[5,12,12,3,2,3,2,10,7,0,2,0,1,0,5,0,6,2,2,0,0,0,0,0,0,0,2,5,0,0,1,0,2,0,0,0,0,0,0],"split_type":[0,0,0,0,0,0,0,0,0,0,0,0,0,0,0,0,0,0,0,0,0,0,0,0,0,0,0,0,0,0,0,0,0,0,0,0,0,0,0],"sum_hessian":[7.58538E2,4.372743E2,3.2126373E2,2.5750208E2,1.7977222E2,2.3812317E2,8.314055E1,1.3590672E2,1.2159535E2,1.0973041E2,7.004181E1,1.4722041E2,9.090275E1,3.2183414E1,5.0957134E1,6.671106E1,6.919566E1,8.6863365E1,3.4731987E1,2.7395089E0,6.73023E1,8.540438E1,5.4983726E0,2.7726343E1,2.3230793E1,3.4230114E1,3.4965546E1,2.822726E1,5.863611E1,4.996399E0,2.9735586E1,9.746093E0,2.5219454E1,1.4984826E1,1.32424345E1,9.745249E0,1.9990337E1,2.072471E1,4.4947443E0],"tree_param":{"num_deleted":"0","num_feature":"15","num_nodes":"39","size_leaf_vector":"1"}},{"base_weights":[-1.0978887E-2,5.2363217E-1,-9.406193E-1,-8.869816E-2,1.1584188E0,-1.1827972E0,3.715147E-1,-1.9666576E-1,1.0519194E-2,1.46839665E-2,6.440831E-1,-1.4317881E-2,-7.9837203E-1,-6.484837E-3,8.9914376E-1,-4.2343318E-1,3.2305694E-1,7.5557244E-1,-4.778513E-3,3.1141415E-3,-8.5081685E-1,1.2447504E-2,3.0632252E-3,1.8611424E-1,-7.2054994E-1,-5.5609886E-3,4.8522604E-1,8.881108E-4,8.614178E-3,-1.1099583E-2,-5.239104E-3,-5.9029856E-3,3.812891E-3,-3.6663887E-1,-1.0118587E-2,6.6989916E-3,-3.56356E-3,-4.5726863E-1,6.217904E-3,-6.259606E-3,1.1021543E-3],"categories":[],"categories_nodes":[],"categories_segments":[],"categories_sizes":[],"default_left":[0,0,0,0,0,0,0,0,0,0,0,0,0,0,0,0,0,0,0,0,0,0,0,0,0,0,0,0,0,0,0,0,0,0,0,0,0,0,0,0,0],"id":10,"left_children":[1,3,5,7,9,11,13,15,-1,-1,17,-1,19,-1,21,23,25,27,-1,-1,29,-1,-1,31,33,-1,35,-1,-1,-1,-1,-1,-1,37,-1,-1,-1,39,-1,-1,-1],"loss_changes":[3.8371072E2,1.9103625E2,9.131294E1,3.1640293E1,3.4647614E1,1.8383362E1,2.7113535E1,2.8055878E1,0E0,0E0,1.3479961E1,0E0,6.9964066E0,0E0,4.935238E0,3.039061E1,1.1303375E1,5.873947E0,0E0,0E0,5.973526E0,0E0,0E0,9.308018E0,9.908577E0,0E0,1.0772919E1,0E0,0E0,0E0,0E0,0E0,0E0,6.002209E0,0E0,0E0,0E0,5.495558E0,0E0,0E0,0E0],"parents":[2147483647,0,0,1,1,2,2,3,3,4,4,5,5,6,6,7,7,10,10,12,12,14,14,15,15,16,16,17,17,20,20,23,23,24,24,26,26,33,33,37,37],"right_children":[2,4,6,8,10,12,14,16,-1,-1,18,-1,20,-1,22,24,26,28,-1,-1,30,-1,-1,32,34,-1,36,-1,-1,-1,-1,-1,-1,38,-1,-1,-1,40,-1,-1,-1],"split_conditions":[1E0,6.315789E-1,7.631579E-1,1E0,1E0,3.3195373E-1,1.5281112E-1,1E0,1.0519194E-2,1.46839665E-2,6.081081E-1,-1.4317881E-2,3.543903E-1,-6.484837E-3,1E0,3.2255152E-1,3.9295986E-1,3.5135135E-1,-4.778513E-3,3.1141415E-3,2.5675675E-1,1.2447504E-2,3.0632252E-3,1.6216215E-1,1E0,-5.5609886E-3,5.771346E-1,8.881108E-4,8.614178E-3,-1.1099583E-2,-5.239104E-3,-5.9029856E-3,3.812891E-3,7.015759E-1,-1.0118587E-2,6.6989916E-3,-3.56356E-3,2.837838E-1,6.217904E-3,-6.259606E-3,1.1021543E-3],"split_indices":[12,5,5,13,3,2,2,7,0,0,1,0,2,0,3,2,2,1,0,0,1,0,0,1,3,0,2,0,0,0,0,0,0,2,0,0,0,1,0,0,0],"split_type":[0,0,0,0,0,0,0,0,0,0,0,0,0,0,0,0,0,0,0,0,0,0,0,0,0,0,0,0,0,0,0,0,0,0,0,0,0,0,0,0,0],"sum_hessian":[7.6487964E2,4.8644577E2,2.7843384E2,2.4897253E2,2.3747324E2,2.3548001E2,4.295382E1,2.3027211E2,1.8700438E1,1.4384518E2,9.3628044E1,1.3676451E2,9.871551E1,1.423252E1,2.87213E1,1.610581E2,6.9214E1,8.638152E1,7.2465215E0,3.4883988E0,9.5227104E1,1.5474562E1,1.3246738E1,5.2976017E1,1.0808209E2,9.244876E0,5.996912E1,1.2994566E1,7.3386955E1,4.805812E1,4.7168983E1,8.993462E0,4.3982555E1,5.2712677E1,5.5369415E1,4.99727E1,9.996419E0,5.021305E1,2.4996266E0,3.8715527E1,1.1497525E1],"tree_param":{"num_deleted":"0","num_feature":"15","num_nodes":"41","size_leaf_vector":"1"}},{"base_weights":[-7.272227E-4,5.261564E-1,-9.4885856E-1,-1.1357911E-1,1.2000699E0,-1.1883024E0,3.8433933E-1,-3.7197393E-1,4.7469366E-1,1.4850994E0,7.32672E-1,-1.3949525E-2,-6.7090005E-1,-4.619376E-3,8.573738E-1,1.6692324E-1,-6.6295683E-1,-3.808906E-3,6.391662E-1,1.9683197E-5,1.5063741E-2,8.4423566E-1,-4.1770265E-3,3.0710837E-3,-7.6317406E-1,1.2438734E-2,2.2776965E-3,-1.0560446E-1,6.3760674E-1,-7.6832813E-1,1.0629571E-2,7.73751E-3,-7.0323836E-4,4.6694607E-1,1.0570954E-2,-8.570324E-3,-0E0,4.0386375E-3,-4.50232E-3,-2.0982341E-3,8.668899E-3,-3.5932735E-1,-1.1273128E-2,1.0547203E-1,9.215744E-3,-4.8151305E-1,7.1818247E-3,4.0746094E-3,-4.1165426E-3,-7.211678E-1,-7.9489825E-4,-8.974809E-3,1.7708524E-4],"categories":[],"categories_nodes":[],"categories_segments":[],"categories_sizes":[],"default_left":[0,0,0,0,0,0,0,0,0,0,0,0,0,0,0,0,0,0,0,0,0,0,0,0,0,0,0,0,0,0,0,0,0,0,0,0,0,0,0,0,0,0,0,0,0,0,0,0,0,0,0,0,0],"id":11,"left_children":[1,3,5,7,9,11,13,15,17,19,21,-1,23,-1,25,27,29,-1,31,-1,-1,33,-1,-1,35,-1,-1,37,39,41,-1,-1,-1,43,-1,-1,-1,-1,-1,-1,-1,45,-1,47,-1,49,-1,-1,-1,51,-1,-1,-1],"loss_changes":[3.897208E2,2.1679512E2,9.076024E1,4.0147907E1,2.8282593E1,2.1643066E1,1.9476505E1,2.9189928E1,1.2266859E1,4.346161E0,1.4147026E1,0E0,7.6709557E0,0E0,6.04883E0,8.907858E0,2.4595901E1,0E0,6.9489174E0,0E0,0E0,5.358795E0,0E0,0E0,4.888733E0,0E0,0E0,8.547745E0,5.6851196E0,1.5153687E1,0E0,0E0,0E0,6.009654E0,0E0,0E0,0E0,0E0,0E0,0E0,0E0,8.962912E0,0E0,4.7274275E0,0E0,4.9731846E0,0E0,0E0,0E0,4.670162E0,0E0,0E0,0E0],"parents":[2147483647,0,0,1,1,2,2,3,3,4,4,5,5,6,6,7,7,8,8,9,9,10,10,12,12,14,14,15,15,16,16,18,18,21,21,24,24,27,27,28,28,29,29,33,33,41,41,43,43,45,45,49,49],"right_children":[2,4,6,8,10,12,14,16,18,20,22,-1,24,-1,26,28,30,-1,32,-1,-1,34,-1,-1,36,-1,-1,38,40,42,-1,-1,-1,44,-1,-1,-1,-1,-1,-1,-1,46,-1,48,-1,50,-1,-1,-1,52,-1,-1,-1],"split_conditions":[1E0,6.315789E-1,7.631579E-1,1E0,1E0,4.3047214E-1,1.5281112E-1,3.1921697E-1,3.9572632E-1,1.2062752E-2,6.081081E-1,-1.3949525E-2,4.4240177E-1,-4.619376E-3,1E0,6.580523E-1,1E0,-3.808906E-3,5.771346E-1,1.9683197E-5,1.5063741E-2,4.054054E-1,-4.1770265E-3,3.0710837E-3,6.8421054E-1,1.2438734E-2,2.2776965E-3,1E0,1.6216215E-1,1E0,1.0629571E-2,7.73751E-3,-7.0323836E-4,1E0,1.0570954E-2,-8.570324E-3,-0E0,4.0386375E-3,-4.50232E-3,-2.0982341E-3,8.668899E-3,6.765402E-1,-1.1273128E-2,6.68E-1,9.215744E-3,6.46E-1,7.1818247E-3,4.0746094E-3,-4.1165426E-3,2.972973E-1,-7.9489825E-4,-8.974809E-3,1.7708524E-4],"split_indices":[12,5,5,7,3,2,2,2,2,4,1,0,2,0,3,4,13,0,2,0,0,1,0,0,5,0,0,6,1,3,0,0,0,7,0,0,0,0,0,0,0,2,0,0,0,0,0,0,0,1,0,0,0],"split_type":[0,0,0,0,0,0,0,0,0,0,0,0,0,0,0,0,0,0,0,0,0,0,0,0,0,0,0,0,0,0,0,0,0,0,0,0,0,0,0,0,0,0,0,0,0,0,0,0,0,0,0,0,0],"sum_hessian":[7.729249E2,4.976942E2,2.7523068E2,2.566603E2,2.4103392E2,2.3378407E2,4.1446625E1,1.7947893E2,7.718137E1,1.4468835E2,9.6345566E1,1.625049E2,7.127918E1,1.4729432E1,2.6717192E1,6.320144E1,1.1627748E2,1.1490607E1,6.5690765E1,2.241371E0,1.4244698E2,8.884918E1,7.496384E0,5.2412734E0,6.60379E1,1.4219873E1,1.2497317E1,4.1468502E1,2.1732935E1,1.11541756E2,4.735732E0,5.5200005E1,1.0490764E1,3.6457367E1,5.2391815E1,5.8293262E1,7.7446427E0,1.6240398E1,2.5228104E1,4.4946375E0,1.7238297E1,5.5704296E1,5.5837456E1,2.2982933E1,1.3474434E1,5.1954887E1,3.7494078E0,1.5239335E1,7.743597E0,3.047111E1,2.1483778E1,2.4222927E1,6.248181E0],"tree_param":{"num_deleted":"0","num_feature":"15","num_nodes":"53","size_leaf_vector":"1"}},{"base_weights":[8.74433E-3,5.1159644E-1,-9.0215087E-1,8.533442E-1,6.801943E-2,-1.3117326E-2,-4.5022947E-1,6.5463185E-1,1.1828415E0,1.3442398E-2,-1.0545925E-1,-6.6775554E-1,-1.9910792E-1,1.0807132E-2,3.0805936E-1,-0E0,1.2142613E-2,-3.693195E-1,4.607501E-1,-3.3353707E-3,-9.205641E-3,-5.0358973E-3,3.242101E-2,1.2985973E-2,1.7549929E-1,3.6762787E-3,-7.657214E-1,-8.304518E-3,6.08604E-1,3.1862018E-1,-3.7826528E-3,5.008974E-4,9.12404E-3,-8.338366E-3,2.1848704E-3,7.160558E-3,-5.3877137E-3,-8.258561E-4,7.6367497E-3],"categories":[],"categories_nodes":[],"categories_segments":[],"categories_sizes":[],"default_left":[0,0,0,0,0,0,0,0,0,0,0,0,0,0,0,0,0,0,0,0,0,0,0,0,0,0,0,0,0,0,0,0,0,0,0,0,0,0,0],"id":12,"left_children":[1,3,5,7,9,-1,11,13,15,-1,17,19,21,-1,23,-1,-1,25,27,-1,-1,-1,29,-1,31,-1,33,-1,35,37,-1,-1,-1,-1,-1,-1,-1,-1,-1],"loss_changes":[3.587876E2,7.6141815E1,4.910623E1,1.552269E1,5.0313297E1,0E0,6.8883057E0,2.5974792E1,4.029892E0,0E0,3.0481152E1,4.7388916E0,5.058841E0,0E0,1.3023128E1,0E0,0E0,4.160207E1,1.4126589E1,0E0,0E0,0E0,5.395407E0,0E0,8.804017E0,0E0,6.9078026E0,0E0,8.845577E0,5.2235403E0,0E0,0E0,0E0,0E0,0E0,0E0,0E0,0E0,0E0],"parents":[2147483647,0,0,1,1,2,2,3,3,4,4,6,6,7,7,8,8,10,10,11,11,12,12,14,14,17,17,18,18,22,22,24,24,26,26,28,28,29,29],"right_children":[2,4,6,8,10,-1,12,14,16,-1,18,20,22,-1,24,-1,-1,26,28,-1,-1,-1,30,-1,32,-1,34,-1,36,38,-1,-1,-1,-1,-1,-1,-1,-1,-1],"split_conditions":[1E0,1E0,2.205214E-1,1E0,1E0,-1.3117326E-2,1E0,3.3195373E-1,3.1240225E-1,1.3442398E-2,1E0,1E0,4.3505296E-1,1.0807132E-2,1E0,-0E0,1.2142613E-2,3.1240225E-1,3.498625E-1,-3.3353707E-3,-9.205641E-3,-5.0358973E-3,5.4374737E-1,1.2985973E-2,6.765402E-1,3.6762787E-3,7.183245E-1,-8.304518E-3,6.195649E-1,4.930756E-1,-3.7826528E-3,5.008974E-4,9.12404E-3,-8.338366E-3,2.1848704E-3,7.160558E-3,-5.3877137E-3,-8.258561E-4,7.6367497E-3],"split_indices":[12,3,2,7,11,0,9,2,2,0,7,3,2,0,11,0,0,2,2,0,0,0,2,0,2,0,2,0,2,2,0,0,0,0,0,0,0,0,0],"split_type":[0,0,0,0,0,0,0,0,0,0,0,0,0,0,0,0,0,0,0,0,0,0,0,0,0,0,0,0,0,0,0,0,0,0,0,0,0,0,0],"sum_hessian":[7.764211E2,5.014012E2,2.750199E2,2.8110266E2,2.2029854E2,1.4051186E2,1.3450804E2,1.8230591E2,9.8796745E1,2.366804E1,1.9663051E2,6.849617E1,6.601186E1,7.8156906E1,1.0414901E2,2.493189E0,9.630356E1,1.3521576E2,6.141474E1,3.3372562E1,3.5123608E1,2.7124117E1,3.8887753E1,8.452555E0,9.569646E1,4.7195496E1,8.802026E1,4.494415E0,5.6920326E1,2.3686049E1,1.5201701E1,8.523462E1,1.0461837E1,8.302688E1,4.993386E0,5.3424038E1,3.4962895E0,1.3712555E1,9.973495E0],"tree_param":{"num_deleted":"0","num_feature":"15","num_nodes":"39","size_leaf_vector":"1"}},{"base_weights":[-7.988791E-3,-5.129164E-1,9.047496E-1,-3.925924E-2,-1.1718138E0,1.218245E-2,-5.0163545E-2,1.2464469E-2,-1.924097E-1,-1.3569182E-2,-6.9903827E-1,-8.979099E-3,5.19559E-1,-4.1099054E-1,3.1086716E-1,4.968658E-3,-8.028082E-3,-0E0,8.626488E-3,1.811308E-1,-7.1194947E-1,-7.317343E-3,5.1241946E-1,-5.709318E-3,3.6164066E-1,-8.2083124E-1,2.6041082E-1,6.844808E-1,-6.1926576E-3,5.0577376E-4,8.187609E-3,-9.0406565E-3,8.3603826E-4,-3.765021E-3,6.793685E-3,3.021789E-3,9.564937E-3],"categories":[],"categories_nodes":[],"categories_segments":[],"categories_sizes":[],"default_left":[0,0,0,0,0,0,0,0,0,0,0,0,0,0,0,0,0,0,0,0,0,0,0,0,0,0,0,0,0,0,0,0,0,0,0,0,0],"id":13,"left_children":[1,3,5,7,9,-1,11,-1,13,-1,15,-1,17,19,21,-1,-1,-1,-1,23,25,-1,27,-1,29,31,33,35,-1,-1,-1,-1,-1,-1,-1,-1,-1],"loss_changes":[3.5430533E2,1.541277E2,8.240991E1,5.8101116E1,1.4325043E1,0E0,3.5948616E1,0E0,2.9517067E1,0E0,9.6285095E0,0E0,8.074328E0,3.369392E1,1.843253E1,0E0,0E0,0E0,0E0,9.534647E0,1.4020248E1,0E0,1.5265701E1,0E0,7.486435E0,8.926765E0,4.96138E0,5.286562E0,0E0,0E0,0E0,0E0,0E0,0E0,0E0,0E0,0E0],"parents":[2147483647,0,0,1,1,2,2,3,3,4,4,6,6,8,8,10,10,12,12,13,13,14,14,19,19,20,20,22,22,24,24,25,25,26,26,27,27],"right_children":[2,4,6,8,10,-1,12,-1,14,-1,16,-1,18,20,22,-1,-1,-1,-1,24,26,-1,28,-1,30,32,34,36,-1,-1,-1,-1,-1,-1,-1,-1,-1],"split_conditions":[6.8421054E-1,1E0,1E0,1E0,4.3047214E-1,1.218245E-2,1.5281112E-1,1.2464469E-2,1E0,-1.3569182E-2,4.4240177E-1,-8.979099E-3,7.894737E-1,3.25139E-1,3.9418298E-1,4.968658E-3,-8.028082E-3,-0E0,8.626488E-3,1.6216215E-1,6.315789E-1,-7.317343E-3,5.9481907E-1,-5.709318E-3,6.0129654E-1,6.7952627E-1,5.127359E-1,1E0,-6.1926576E-3,5.0577376E-4,8.187609E-3,-9.0406565E-3,8.3603826E-4,-3.765021E-3,6.793685E-3,3.021789E-3,9.564937E-3],"split_indices":[5,12,12,11,2,0,2,0,7,0,2,0,5,2,2,0,0,0,0,1,5,0,2,0,4,2,2,9,0,0,0,0,0,0,0,0,0],"split_type":[0,0,0,0,0,0,0,0,0,0,0,0,0,0,0,0,0,0,0,0,0,0,0,0,0,0,0,0,0,0,0,0,0,0,0,0,0],"sum_hessian":[7.619022E2,4.916783E2,2.7022394E2,2.8840378E2,2.0327454E2,2.0287332E2,6.735063E1,2.7877722E1,2.6052603E2,1.4103139E2,6.224315E1,2.6405474E1,4.0945156E1,1.8238124E2,7.8144806E1,3.7428234E0,5.8500328E1,1.7483501E1,2.3461653E1,6.1695126E1,1.2068611E2,1.0990293E1,6.715451E1,1.0242063E1,5.1453064E1,1.0922189E2,1.1464216E1,5.966082E1,7.493693E0,3.3218376E1,1.8234688E1,1.00233345E2,8.988553E0,4.4895067E0,6.9747095E0,2.8212643E1,3.1448175E1],"tree_param":{"num_deleted":"0","num_feature":"15","num_nodes":"37","size_leaf_vector":"1"}},{"base_weights":[-5.768892E-3,-5.5663764E-1,8.409626E-1,-6.2019214E-2,-1.2262312E0,1.1554918E0,-5.8650486E-2,1.1586956E-2,-1.978943E-1,-1.3981576E-2,-8.5932875E-1,1.4211362E-2,6.9248784E-1,-5.8134925E-1,4.848649E-1,1.4953546E-1,-5.7464004E-1,-1.1241049E-2,-5.124399E-3,8.2598716E-1,-5.09869E-1,3.790303E-3,-6.5174005E-3,1.113763E-2,-1.2117556E-3,-1.15897834E-1,7.052556E-3,-7.931702E-1,3.743472E-2,1.40205715E-2,6.635724E-1,1.9611167E-3,-9.214174E-3,-3.2223094E-1,3.9402255E-1,-1.0114104E-2,-4.6698466E-1,5.705619E-3,-1.868527E-3,2.1611416E-4,7.574007E-3,-5.4028207E-3,-1.7740601E-4,8.170737E-3,-0E0,-5.7000357E-1,4.624371E-3,-8.925897E-3,-4.0128842E-4],"categories":[],"categories_nodes":[],"categories_segments":[],"categories_sizes":[],"default_left":[0,0,0,0,0,0,0,0,0,0,0,0,0,0,0,0,0,0,0,0,0,0,0,0,0,0,0,0,0,0,0,0,0,0,0,0,0,0,0,0,0,0,0,0,0,0,0,0,0],"id":14,"left_children":[1,3,5,7,9,11,13,-1,15,-1,17,-1,19,21,23,25,27,-1,-1,29,31,-1,-1,-1,-1,33,-1,35,37,-1,39,-1,-1,41,43,-1,45,-1,-1,-1,-1,-1,-1,-1,-1,47,-1,-1,-1],"loss_changes":[3.6264673E2,1.5553171E2,8.715558E1,4.6202324E1,7.901703E0,2.4051971E1,2.4459673E1,0E0,3.31868E1,0E0,4.357998E0,0E0,1.5999413E1,3.892418E0,1.6761765E1,2.0007435E1,1.6478645E1,0E0,0E0,4.012142E0,3.989129E0,0E0,0E0,0E0,0E0,1.0180793E1,0E0,4.4138336E0,4.640895E0,0E0,4.0748215E0,0E0,0E0,4.37613E0,4.6694365E0,0E0,5.0571556E0,0E0,0E0,0E0,0E0,0E0,0E0,0E0,0E0,6.5814085E0,0E0,0E0,0E0],"parents":[2147483647,0,0,1,1,2,2,3,3,4,4,5,5,6,6,8,8,10,10,12,12,13,13,14,14,15,15,16,16,19,19,20,20,25,25,27,27,28,28,30,30,33,33,34,34,36,36,45,45],"right_children":[2,4,6,8,10,12,14,-1,16,-1,18,-1,20,22,24,26,28,-1,-1,30,32,-1,-1,-1,-1,34,-1,36,38,-1,40,-1,-1,42,44,-1,46,-1,-1,-1,-1,-1,-1,-1,-1,48,-1,-1,-1],"split_conditions":[6.5789473E-1,1E0,1E0,1E0,5E-1,1E0,7.894737E-1,1.1586956E-2,1E0,-1.3981576E-2,1E0,1.4211362E-2,6.081081E-1,2.76E-1,1E0,2.837838E-1,1E0,-1.1241049E-2,-5.124399E-3,1E0,1E0,3.790303E-3,-6.5174005E-3,1.113763E-2,-1.2117556E-3,1E0,7.052556E-3,1E0,4.64E-1,1.40205715E-2,3.6486486E-1,1.9611167E-3,-9.214174E-3,1E0,4.2158705E-1,-1.0114104E-2,6.315789E-1,5.705619E-3,-1.868527E-3,2.1611416E-4,7.574007E-3,-5.4028207E-3,-1.7740601E-4,8.170737E-3,-0E0,6.386739E-1,4.624371E-3,-8.925897E-3,-4.0128842E-4],"split_indices":[5,12,12,11,5,3,5,0,3,0,9,0,1,0,3,1,7,0,0,11,6,0,0,0,0,7,0,9,0,0,1,0,0,9,4,0,5,0,0,0,0,0,0,0,0,4,0,0,0],"split_type":[0,0,0,0,0,0,0,0,0,0,0,0,0,0,0,0,0,0,0,0,0,0,0,0,0,0,0,0,0,0,0,0,0,0,0,0,0,0,0,0,0,0,0,0,0,0,0,0,0],"sum_hessian":[7.7056384E2,4.6772525E2,3.0283856E2,2.7140326E2,1.9632199E2,2.2382024E2,7.901833E1,2.4375591E1,2.4702766E2,1.2655616E2,6.976584E1,1.3730614E2,8.651411E1,4.0354572E1,3.866376E1,1.2932462E2,1.1770304E2,3.475027E1,3.5015568E1,7.901788E1,7.496227E0,1.4970421E0,3.8857533E1,1.7699781E1,2.0963978E1,8.914674E1,4.017788E1,8.622408E1,3.147896E1,1.118757E1,6.7830315E1,3.2489102E0,4.247317E0,6.4683586E1,2.4463154E1,4.684407E1,3.9380013E1,7.9936237E0,2.3485336E1,9.489682E0,5.834063E1,3.5699078E1,2.898451E1,9.9841E0,1.44790535E1,3.6880295E1,2.4997182E0,2.1178997E1,1.5701297E1],"tree_param":{"num_deleted":"0","num_feature":"15","num_nodes":"49","size_leaf_vector":"1"}},{"base_weights":[-1.4275368E-2,-5.7996184E-1,8.75145E-1,-7.855915E-2,-1.2518978E-2,1.2036763E0,-6.965855E-2,1.0957986E-2,-2.2084089E-1,1.4352633E-2,8.087303E-1,-6.0484773E-3,5.086176E-1,1.1644445E-1,-5.834305E-1,8.974752E-3,-3.5223896E-3,1.1413575E-2,-6.471268E-2,-1.1816818E-1,5.9883E-3,-7.950731E-1,-0E0,-4.644773E-3,3.1504306E-1,-3.2714948E-1,3.6139204E-3,-9.2186284E-1,-2.942138E-3,-3.5954313E-3,4.5107757E-3,-6.5287994E-3,7.6373382E-3,-5.6088143E-3,1.8212761E-4,-9.963253E-3,8.0876163E-4],"categories":[],"categories_nodes":[],"categories_segments":[],"categories_sizes":[],"default_left":[0,0,0,0,0,0,0,0,0,0,0,0,0,0,0,0,0,0,0,0,0,0,0,0,0,0,0,0,0,0,0,0,0,0,0,0,0],"id":15,"left_children":[1,3,5,7,-1,9,11,-1,13,-1,15,-1,17,19,21,-1,-1,-1,23,25,-1,27,29,-1,31,33,-1,35,-1,-1,-1,-1,-1,-1,-1,-1,-1],"loss_changes":[3.8565527E2,1.5727821E2,9.30065E1,4.617035E1,0E0,1.569281E1,2.5868128E1,0E0,3.0422226E1,0E0,1.0524273E1,0E0,1.5065088E1,1.5071696E1,1.4790035E1,0E0,0E0,0E0,4.2252965E0,9.443636E0,0E0,4.3582993E0,6.2912254E0,0E0,7.9665523E0,5.3934326E0,0E0,5.555275E0,0E0,0E0,0E0,0E0,0E0,0E0,0E0,0E0,0E0],"parents":[2147483647,0,0,1,1,2,2,3,3,5,5,6,6,8,8,10,10,12,12,13,13,14,14,18,18,19,19,21,21,22,22,24,24,25,25,27,27],"right_children":[2,4,6,8,-1,10,12,-1,14,-1,16,-1,18,20,22,-1,-1,-1,24,26,-1,28,30,-1,32,34,-1,36,-1,-1,-1,-1,-1,-1,-1,-1,-1],"split_conditions":[6.5789473E-1,1E0,1E0,1E0,-1.2518978E-2,1E0,7.894737E-1,1.0957986E-2,1E0,1.4352633E-2,6.216216E-1,-6.0484773E-3,1E0,2.837838E-1,1E0,8.974752E-3,-3.5223896E-3,1.1413575E-2,1E0,1E0,5.9883E-3,5.7894737E-1,5E-1,-4.644773E-3,2.9217216E-1,1E0,3.6139204E-3,8.9036375E-1,-2.942138E-3,-3.5954313E-3,4.5107757E-3,-6.5287994E-3,7.6373382E-3,-5.6088143E-3,1.8212761E-4,-9.963253E-3,8.0876163E-4],"split_indices":[5,12,12,11,0,3,5,0,3,0,1,0,3,1,7,0,0,0,9,7,0,5,5,0,4,9,0,4,0,0,0,0,0,0,0,0,0],"split_type":[0,0,0,0,0,0,0,0,0,0,0,0,0,0,0,0,0,0,0,0,0,0,0,0,0,0,0,0,0,0,0,0,0,0,0,0,0],"sum_hessian":[7.5956696E2,4.651718E2,2.9439514E2,2.6882022E2,1.9635161E2,2.1789017E2,7.650498E1,2.6341827E1,2.424784E2,1.3117276E2,8.671741E1,3.9839188E1,3.6665794E1,1.2655666E2,1.1592173E2,8.147059E1,5.246818E0,1.5949203E1,2.0716595E1,8.6636284E1,3.992038E1,8.419429E1,3.1727442E1,9.982137E0,1.0734457E1,6.142744E1,2.5208841E1,6.448958E1,1.9704712E1,1.7987177E1,1.3740265E1,2.743386E0,7.9910707E0,3.5691494E1,2.5735945E1,6.0249424E1,4.2401505E0],"tree_param":{"num_deleted":"0","num_feature":"15","num_nodes":"37","size_leaf_vector":"1"}},{"base_weights":[-3.250949E-2,-6.205001E-1,7.749128E-1,-1.7226972E-1,-1.2175007E0,1.1381574E0,-1.8397005E-1,-4.1050363E-1,3.7356377E-1,-1.4460976E-2,-8.942167E-3,9.4877994E-1,1.3551951E-2,-8.696042E-3,3.335296E-1,1.672324E-1,-6.941202E-1,-4.0494508E-1,5.305014E-1,7.036277E-1,1.2953783E-2,-1.5034288E-3,8.914357E-3,-4.7183554E-3,3.2381222E-1,-7.841357E-1,9.795761E-3,-8.480569E-3,2.3993785E-3,6.6276984E-3,-4.839912E-4,1.1467891E-2,2.5350443E-1,7.001583E-3,7.8784174E-4,-8.624594E-1,4.152736E-3,5.4377452E-3,-1.1554051E-3,-1.0488502E-2,-3.985691E-3],"categories":[],"categories_nodes":[],"categories_segments":[],"categories_sizes":[],"default_left":[0,0,0,0,0,0,0,0,0,0,0,0,0,0,0,0,0,0,0,0,0,0,0,0,0,0,0,0,0,0,0,0,0,0,0,0,0,0,0,0,0],"id":16,"left_children":[1,3,5,7,9,11,13,15,17,-1,-1,19,-1,-1,21,23,25,27,29,31,-1,-1,-1,-1,33,35,-1,-1,-1,-1,-1,-1,37,-1,-1,39,-1,-1,-1,-1,-1],"loss_changes":[3.6626233E2,1.1844263E2,1.1414574E2,3.4267197E1,9.047699E0,4.7048645E0,3.3834858E1,3.0418411E1,1.0600518E1,0E0,0E0,8.13707E0,0E0,0E0,1.5445652E1,6.776973E0,2.1238682E1,5.2023225E0,5.4979725E0,1.6467396E1,0E0,0E0,0E0,0E0,4.4995313E0,1.2542587E1,0E0,0E0,0E0,0E0,0E0,0E0,5.5595064E0,0E0,0E0,8.00248E0,0E0,0E0,0E0,0E0,0E0],"parents":[2147483647,0,0,1,1,2,2,3,3,4,4,5,5,6,6,7,7,8,8,11,11,14,14,15,15,16,16,17,17,18,18,19,19,24,24,25,25,32,32,35,35],"right_children":[2,4,6,8,10,12,14,16,18,-1,-1,20,-1,-1,22,24,26,28,30,32,-1,-1,-1,-1,34,36,-1,-1,-1,-1,-1,-1,38,-1,-1,40,-1,-1,-1,-1,-1],"split_conditions":[6.315789E-1,1E0,1E0,1E0,2.205214E-1,8.4210527E-1,1.5281112E-1,3.1240225E-1,3.9418298E-1,-1.4460976E-2,-8.942167E-3,1E0,1.3551951E-2,-8.696042E-3,7.894737E-1,1.6216215E-1,1E0,2.5675675E-1,5.771346E-1,3.2810885E-1,1.2953783E-2,-1.5034288E-3,8.914357E-3,-4.7183554E-3,1E0,7.015759E-1,9.795761E-3,-8.480569E-3,2.3993785E-3,6.6276984E-3,-4.839912E-4,1.1467891E-2,6.08E-1,7.001583E-3,7.8784174E-4,5.263158E-1,4.152736E-3,5.4377452E-3,-1.1554051E-3,-1.0488502E-2,-3.985691E-3],"split_indices":[5,12,12,7,2,5,2,2,2,0,0,7,0,0,5,1,13,1,2,2,0,0,0,0,6,2,0,0,0,0,0,0,0,0,0,5,0,0,0,0,0],"split_type":[0,0,0,0,0,0,0,0,0,0,0,0,0,0,0,0,0,0,0,0,0,0,0,0,0,0,0,0,0,0,0,0,0,0,0,0,0,0,0,0,0],"sum_hessian":[7.644637E2,4.4296164E2,3.21502E2,2.5579599E2,1.8716566E2,2.328552E2,8.864682E1,1.7895142E2,7.684457E1,1.0209941E2,8.5066246E1,1.3496187E2,9.789334E1,3.727627E1,5.1370544E1,5.915222E1,1.197992E2,1.1732967E1,6.51116E1,8.5649605E1,4.931226E1,2.8683006E1,2.268754E1,9.980911E0,4.917131E1,1.1557901E2,4.2201886E0,6.49252E0,5.240448E0,5.2885002E1,1.22266E1,4.0178352E1,4.5471252E1,1.6472614E1,3.2698696E1,1.09587524E2,5.9914904E0,2.4841555E1,2.0629698E1,7.468661E1,3.4900913E1],"tree_param":{"num_deleted":"0","num_feature":"15","num_nodes":"41","size_leaf_vector":"1"}},{"base_weights":[-1.9506207E-2,-5.621334E-1,8.300677E-1,-7.3506765E-2,-1.2083404E0,1.1255933E0,-9.804835E-2,1.1457547E-2,-2.2031195E-1,-1.3351765E-2,-8.515354E-1,9.007714E-1,1.4334773E-2,-8.921225E-1,4.6252266E-1,-4.4232848E-1,3.0298427E-1,3.0245583E-3,-9.509441E-3,1.3043106E0,4.9971408E-1,1.9032436E-3,-1.010806E-2,7.622963E-2,8.124231E-3,1.623133E-1,-7.187039E-1,-6.925039E-3,5.108978E-1,1.7085286E-3,1.3852972E-2,1.6821806E-1,9.709717E-3,3.477458E-3,-4.8605045E-3,-7.85119E-4,8.135756E-3,-7.87835E-1,4.196894E-3,6.9085824E-1,-5.8800057E-3,9.546811E-3,1.7196602E-4,-9.486127E-1,-3.867039E-1,8.520384E-3,-1.653624E-3,-1.0384186E-2,-8.3508366E-4,-5.10695E-3,3.1913081E-3],"categories":[],"categories_nodes":[],"categories_segments":[],"categories_sizes":[],"default_left":[0,0,0,0,0,0,0,0,0,0,0,0,0,0,0,0,0,0,0,0,0,0,0,0,0,0,0,0,0,0,0,0,0,0,0,0,0,0,0,0,0,0,0,0,0,0,0,0,0,0,0],"id":17,"left_children":[1,3,5,7,9,11,13,-1,15,-1,17,19,-1,21,23,25,27,-1,-1,29,31,-1,-1,33,-1,35,37,-1,39,-1,-1,41,-1,-1,-1,-1,-1,43,-1,45,-1,-1,-1,47,49,-1,-1,-1,-1,-1,-1],"loss_changes":[3.5474838E2,1.477381E2,8.285123E1,4.927323E1,4.6722717E0,1.0738373E1,3.5141624E1,0E0,2.9006012E1,0E0,8.385521E0,2.0238083E1,0E0,5.0376644E0,5.866185E0,2.9601707E1,1.6706055E1,0E0,0E0,5.090889E0,1.1208416E1,0E0,0E0,4.5688534E0,0E0,9.352696E0,1.0707634E1,0E0,1.4136808E1,0E0,0E0,5.6396904E0,0E0,0E0,0E0,0E0,0E0,5.830696E0,0E0,8.494484E0,0E0,0E0,0E0,5.6069565E0,4.0412254E0,0E0,0E0,0E0,0E0,0E0,0E0],"parents":[2147483647,0,0,1,1,2,2,3,3,4,4,5,5,6,6,8,8,10,10,11,11,13,13,14,14,15,15,16,16,19,19,20,20,23,23,25,25,26,26,28,28,31,31,37,37,39,39,43,43,44,44],"right_children":[2,4,6,8,10,12,14,-1,16,-1,18,20,-1,22,24,26,28,-1,-1,30,32,-1,-1,34,-1,36,38,-1,40,-1,-1,42,-1,-1,-1,-1,-1,44,-1,46,-1,-1,-1,48,50,-1,-1,-1,-1,-1,-1],"split_conditions":[6.5789473E-1,1E0,1E0,1E0,4.3047214E-1,1E0,1.5281112E-1,1.1457547E-2,1E0,-1.3351765E-2,4.4240177E-1,3.2810885E-1,1.4334773E-2,3.68E-1,7.894737E-1,3.1240225E-1,3.9418298E-1,3.0245583E-3,-9.509441E-3,3.5135135E-1,8.684211E-1,1.9032436E-3,-1.010806E-2,7.540262E-1,8.124231E-3,5.7894737E-1,7.096828E-1,-6.925039E-3,5.9481907E-1,1.7085286E-3,1.3852972E-2,1E0,9.709717E-3,3.477458E-3,-4.8605045E-3,-7.85119E-4,8.135756E-3,5.263158E-1,4.196894E-3,8.54E-1,-5.8800057E-3,9.546811E-3,1.7196602E-4,8.3195263E-1,8.08E-1,8.520384E-3,-1.653624E-3,-1.0384186E-2,-8.3508366E-4,-5.10695E-3,3.1913081E-3],"split_indices":[5,12,12,11,2,7,2,0,7,0,2,2,0,0,5,2,2,0,0,1,5,0,0,4,0,5,2,0,2,0,0,11,0,0,0,0,0,5,0,0,0,0,0,4,0,0,0,0,0,0,0],"split_type":[0,0,0,0,0,0,0,0,0,0,0,0,0,0,0,0,0,0,0,0,0,0,0,0,0,0,0,0,0,0,0,0,0,0,0,0,0,0,0,0,0,0,0,0,0,0,0,0,0,0,0],"sum_hessian":[7.625625E2,4.6622296E2,2.9633954E2,2.678981E2,1.9832486E2,2.2437529E2,7.196424E1,2.6062803E1,2.418353E2,1.3876065E2,5.9564217E1,1.3805818E2,8.631711E1,2.9075512E1,4.288873E1,1.7046303E2,7.1372284E1,3.9852335E0,5.5578983E1,6.460443E1,7.345375E1,2.486679E0,2.6588833E1,2.2708008E1,2.0180721E1,5.3689022E1,1.16774E2,1.0738692E1,6.063359E1,5.2121058E0,5.9392326E1,4.618687E1,2.7266882E1,1.6472584E1,6.2354255E0,4.1215687E1,1.2473335E1,1.11285255E2,5.488746E0,5.3389187E1,7.2444043E0,4.199257E0,4.1987614E1,7.5639465E1,3.5645786E1,4.5153915E1,8.235269E0,6.7665504E1,7.973965E0,3.1402178E1,4.243607E0],"tree_param":{"num_deleted":"0","num_feature":"15","num_nodes":"51","size_leaf_vector":"1"}},{"base_weights":[-6.2395106E-3,-5.992779E-1,8.01821E-1,-1.4440863E-1,-1.199372E0,1.1476777E0,-1.2724647E-1,-3.626221E-1,3.492184E-1,-1.3961806E-2,-8.467064E-1,1.194029E0,1.3262044E-3,-8.137228E-3,3.6304727E-1,2.298754E-1,-6.7768943E-1,-8.146711E-3,4.5982194E-1,1.3276333E-3,-8.917057E-3,8.086815E-3,1.3179129E-2,-1.9323044E-3,9.3647055E-3,-6.747343E-2,7.3349522E-3,-7.65021E-1,9.407306E-3,5.1570475E-1,-3.4204668E-3,4.2402954E-3,-3.7876272E-3,-8.523561E-1,9.029975E-4,9.041373E-3,2.9816632E-3,-9.798925E-3,-3.5246778E-1,3.662497E-3,-5.328879E-3],"categories":[],"categories_nodes":[],"categories_segments":[],"categories_sizes":[],"default_left":[0,0,0,0,0,0,0,0,0,0,0,0,0,0,0,0,0,0,0,0,0,0,0,0,0,0,0,0,0,0,0,0,0,0,0,0,0,0,0,0,0],"id":18,"left_children":[1,3,5,7,9,11,13,15,17,-1,19,21,-1,-1,23,25,27,-1,29,-1,-1,-1,-1,-1,-1,31,-1,33,-1,35,-1,-1,-1,37,-1,-1,-1,-1,39,-1,-1],"loss_changes":[3.6575266E2,1.1931061E2,1.0450224E2,2.7882774E1,8.498199E0,1.025882E1,3.163124E1,3.399087E1,1.1485269E1,0E0,3.974865E0,6.538208E0,0E0,0E0,1.8372831E1,9.9605465E0,1.9136375E1,0E0,4.021529E0,0E0,0E0,0E0,0E0,0E0,0E0,7.203708E0,0E0,8.931877E0,0E0,4.8671436E0,0E0,0E0,0E0,5.120758E0,0E0,0E0,0E0,0E0,4.213896E0,0E0,0E0],"parents":[2147483647,0,0,1,1,2,2,3,3,4,4,5,5,6,6,7,7,8,8,10,10,11,11,14,14,15,15,16,16,18,18,25,25,27,27,29,29,33,33,38,38],"right_children":[2,4,6,8,10,12,14,16,18,-1,20,22,-1,-1,24,26,28,-1,30,-1,-1,-1,-1,-1,-1,32,-1,34,-1,36,-1,-1,-1,38,-1,-1,-1,-1,40,-1,-1],"split_conditions":[6.315789E-1,1E0,1E0,1E0,3.3195373E-1,6.216216E-1,1.5281112E-1,3.1921697E-1,3.1921697E-1,-1.3961806E-2,3.543903E-1,3.783784E-1,1.3262044E-3,-8.137228E-3,7.894737E-1,6.580523E-1,1E0,-8.146711E-3,6.5308094E-1,1.3276333E-3,-8.917057E-3,8.086815E-3,1.3179129E-2,-1.9323044E-3,9.3647055E-3,1E0,7.3349522E-3,6.765402E-1,9.407306E-3,3.0579355E-1,-3.4204668E-3,4.2402954E-3,-3.7876272E-3,7.507979E-1,9.029975E-4,9.041373E-3,2.9816632E-3,-9.798925E-3,3.981943E-1,3.662497E-3,-5.328879E-3],"split_indices":[5,12,12,7,2,1,2,2,2,0,2,1,0,0,5,4,13,0,2,0,0,0,0,0,0,6,0,2,0,4,0,0,0,4,0,0,0,0,2,0,0],"split_type":[0,0,0,0,0,0,0,0,0,0,0,0,0,0,0,0,0,0,0,0,0,0,0,0,0,0,0,0,0,0,0,0,0,0,0,0,0,0,0,0,0],"sum_hessian":[7.5628546E2,4.3685043E2,3.19435E2,2.511763E2,1.8567415E2,2.3234308E2,8.709193E1,1.7512372E2,7.605258E1,1.12105095E2,7.3569046E1,2.21404E2,1.0939077E1,3.549982E1,5.159211E1,6.089194E1,1.1423178E2,4.4907875E0,7.156179E1,2.7232563E0,7.084579E1,6.0719433E1,1.6068457E2,2.7183525E1,2.4408583E1,3.993704E1,2.09549E1,1.10267166E2,3.9646084E0,6.8320015E1,3.2417765E0,1.4727925E1,2.5209112E1,1.0028711E2,9.9800625E0,2.0191498E1,4.8128517E1,7.6873245E1,2.3413858E1,3.735546E0,1.9678312E1],"tree_param":{"num_deleted":"0","num_feature":"15","num_nodes":"41","size_leaf_vector":"1"}},{"base_weights":[-9.5219316E-4,-5.3825504E-1,8.3960366E-1,-8.643551E-2,-1.1514605E0,1.1422449E0,-1.88789E-2,1.0338184E-2,-2.0786546E-1,-1.299825E-2,-7.4374425E-1,1.3973586E-2,7.1170443E-1,-6.213326E-1,5.27598E-1,-5.0650156E-1,1.4972779E-1,3.034761E-3,-8.389359E-3,8.369094E-3,-4.2888513E-3,-0E0,-9.34221E-3,-7.0116825E-2,8.9982E-3,-6.967142E-1,-0E0,4.667741E-3,-2.1001178E-1,-5.0110673E-3,9.552682E-3,2.966344E-3,-5.836986E-3,-9.19424E-3,-9.831215E-1,3.214646E-1,-3.5402842E-3,-4.380649E-1,2.981989E-3,-5.8190622E-3,2.5564446E-3,-1.0375065E-2,2.1878474E-3,6.44649E-3,-1.6888906E-3,4.5469403E-4,-6.4779483E-3],"categories":[],"categories_nodes":[],"categories_segments":[],"categories_sizes":[],"default_left":[0,0,0,0,0,0,0,0,0,0,0,0,0,0,0,0,0,0,0,0,0,0,0,0,0,0,0,0,0,0,0,0,0,0,0,0,0,0,0,0,0,0,0,0,0,0,0],"id":19,"left_children":[1,3,5,7,9,11,13,-1,15,-1,17,-1,19,21,23,25,27,-1,-1,-1,-1,29,-1,31,-1,33,35,-1,37,-1,-1,-1,-1,39,41,43,-1,45,-1,-1,-1,-1,-1,-1,-1,-1,-1],"loss_changes":[3.4507535E2,1.2859312E2,7.769969E1,3.765074E1,8.10495E0,2.0269653E1,2.7810888E1,0E0,2.6928656E1,0E0,7.1155014E0,0E0,1.4130653E1,7.676036E0,1.0219061E1,1.3137024E1,1.3593783E1,0E0,0E0,0E0,0E0,9.8352585E0,0E0,4.434087E0,0E0,1.9322376E1,5.0623565E0,0E0,7.01501E0,0E0,0E0,0E0,0E0,5.5956116E0,5.540169E0,4.162887E0,0E0,4.3464327E0,0E0,0E0,0E0,0E0,0E0,0E0,0E0,0E0,0E0],"parents":[2147483647,0,0,1,1,2,2,3,3,4,4,5,5,6,6,8,8,10,10,12,12,13,13,14,14,15,15,16,16,21,21,23,23,25,25,26,26,28,28,33,33,34,34,35,35,37,37],"right_children":[2,4,6,8,10,12,14,-1,16,-1,18,-1,20,22,24,26,28,-1,-1,-1,-1,30,-1,32,-1,34,36,-1,38,-1,-1,-1,-1,40,42,44,-1,46,-1,-1,-1,-1,-1,-1,-1,-1,-1],"split_conditions":[6.5789473E-1,1E0,1E0,1E0,4.3047214E-1,1E0,3.3195373E-1,1.0338184E-2,1E0,-1.299825E-2,4.4240177E-1,1.3973586E-2,6.081081E-1,1E0,7.631579E-1,1E0,1E0,3.034761E-3,-8.389359E-3,8.369094E-3,-4.2888513E-3,4.5945945E-1,-9.34221E-3,6.1997706E-1,8.9982E-3,3.1240225E-1,1E0,4.667741E-3,1E0,-5.0110673E-3,9.552682E-3,2.966344E-3,-5.836986E-3,1.891892E-1,7.015759E-1,5.0809705E-1,-3.5402842E-3,3.1921697E-1,2.981989E-3,-5.8190622E-3,2.5564446E-3,-1.0375065E-2,2.1878474E-3,6.44649E-3,-1.6888906E-3,4.5469403E-4,-6.4779483E-3],"split_indices":[5,12,12,11,2,3,2,0,9,0,2,0,1,3,5,7,3,0,0,0,0,1,0,4,0,2,3,0,7,0,0,0,0,1,2,2,0,2,0,0,0,0,0,0,0,0,0],"split_type":[0,0,0,0,0,0,0,0,0,0,0,0,0,0,0,0,0,0,0,0,0,0,0,0,0,0,0,0,0,0,0,0,0,0,0,0,0,0,0,0,0,0,0,0,0,0,0],"sum_hessian":[7.571666E2,4.628312E2,2.943354E2,2.6899207E2,1.9383916E2,2.1694138E2,7.7394005E1,2.3550938E1,2.4544113E2,1.3609859E2,5.7740562E1,1.3095485E2,8.598654E1,3.6767036E1,4.0626972E1,1.3327106E2,1.1217007E2,3.9844532E0,5.375611E1,7.849251E1,7.494027E0,1.3670052E1,2.3096985E1,1.6467833E1,2.415914E1,9.5840416E1,3.7430645E1,5.9380035E1,5.2790028E1,1.0177525E1,3.4925265E0,1.0233153E1,6.2346783E0,2.9469372E1,6.637104E1,1.96988E1,1.7731846E1,3.706166E1,1.5728368E1,8.240102E0,2.122927E1,6.412682E1,2.2442212E0,1.1466852E1,8.231946E0,1.1739597E1,2.5322063E1],"tree_param":{"num_deleted":"0","num_feature":"15","num_nodes":"47","size_leaf_vector":"1"}},{"base_weights":[-1.5548504E-3,-5.857019E-1,7.834716E-1,-1.2455182E-1,-1.2017897E0,1.1329628E0,-1.8884875E-1,2.3161864E-1,-4.993212E-1,-1.418419E-2,-8.979076E-3,1.3856382E-2,7.063404E-1,-7.9868376E-1,2.7635613E-1,-4.2746062E-3,6.9306624E-1,-6.041144E-1,7.2254036E-3,7.877096E-3,-2.6159924E-3,-2.623192E-1,-1.0797939E-2,-2.2969681E-3,8.723991E-3,-3.4024718E-1,3.6791822E-1,-6.7621475E-4,8.25001E-3,-6.617937E-1,7.7281934E-3,-6.150471E-3,8.023539E-3,-5.153871E-3,3.7211233E-3,7.3380405E-3,-0E0,-7.1990657E-1,3.4526181E-3,-3.4256345E-3,4.858995E-3,-2.6477042E-3,-8.471935E-1,-1.0952872E-2,-2.3710125E-3],"categories":[],"categories_nodes":[],"categories_segments":[],"categories_sizes":[],"default_left":[0,0,0,0,0,0,0,0,0,0,0,0,0,0,0,0,0,0,0,0,0,0,0,0,0,0,0,0,0,0,0,0,0,0,0,0,0,0,0,0,0,0,0,0,0],"id":20,"left_children":[1,3,5,7,9,11,13,15,17,-1,-1,-1,19,21,23,25,27,29,-1,-1,-1,31,-1,-1,-1,33,35,-1,-1,37,-1,-1,-1,-1,-1,-1,39,41,-1,-1,-1,-1,43,-1,-1],"loss_changes":[3.53462E2,1.248085E2,1.1266383E2,3.4766586E1,7.449829E0,2.2253143E1,2.6355658E1,1.4729116E1,1.7723928E1,0E0,0E0,0E0,8.529659E0,4.7427406E0,1.6930344E1,1.1911202E1,4.9344807E0,1.1202545E1,0E0,0E0,0E0,8.696894E0,0E0,0E0,0E0,6.9883876E0,6.0183597E0,0E0,0E0,7.7405586E0,0E0,0E0,0E0,0E0,0E0,0E0,4.915409E0,5.40493E0,0E0,0E0,0E0,0E0,1.1634277E1,0E0,0E0],"parents":[2147483647,0,0,1,1,2,2,3,3,4,4,5,5,6,6,7,7,8,8,12,12,13,13,14,14,15,15,16,16,17,17,21,21,25,25,26,26,29,29,36,36,37,37,42,42],"right_children":[2,4,6,8,10,12,14,16,18,-1,-1,-1,20,22,24,26,28,30,-1,-1,-1,32,-1,-1,-1,34,36,-1,-1,38,-1,-1,-1,-1,-1,-1,40,42,-1,-1,-1,-1,44,-1,-1],"split_conditions":[6.315789E-1,1E0,1E0,1E0,2.205214E-1,1E0,1.5281112E-1,1E0,1E0,-1.418419E-2,-8.979076E-3,1.3856382E-2,6.216216E-1,1E0,7.894737E-1,1E0,3.9572632E-1,1E0,7.2254036E-3,7.877096E-3,-2.6159924E-3,4.5945945E-1,-1.0797939E-2,-2.2969681E-3,8.723991E-3,8.132355E-1,3.5957655E-1,-6.7621475E-4,8.25001E-3,9.5731884E-1,7.7281934E-3,-6.150471E-3,8.023539E-3,-5.153871E-3,3.7211233E-3,7.3380405E-3,5.4374737E-1,3.0409482E-1,3.4526181E-3,-3.4256345E-3,4.858995E-3,-2.6477042E-3,1E0,-1.0952872E-2,-2.3710125E-3],"split_indices":[5,12,12,3,2,3,2,7,13,0,0,0,1,3,5,9,2,14,0,0,0,1,0,0,0,4,2,0,0,4,0,0,0,0,0,0,2,2,0,0,0,0,7,0,0],"split_type":[0,0,0,0,0,0,0,0,0,0,0,0,0,0,0,0,0,0,0,0,0,0,0,0,0,0,0,0,0,0,0,0,0,0,0,0,0,0,0,0,0,0,0,0,0],"sum_hessian":[7.6384546E2,4.386237E2,3.252218E2,2.5347005E2,1.8515363E2,2.3896506E2,8.625673E1,1.3035857E2,1.2311147E2,1.00157364E2,8.499627E1,1.4480096E2,9.416409E1,3.6432327E1,4.9824398E1,8.826319E1,4.209538E1,1.15184296E2,7.927182E0,8.766821E1,6.495877E0,1.5125532E1,2.1306795E1,2.7923088E1,2.190131E1,4.6846794E1,4.1416397E1,6.237835E0,3.5857544E1,1.12454216E2,2.7300751E0,1.262669E1,2.4988425E0,3.8621445E1,8.2253475E0,1.8955471E1,2.2460924E1,1.0746615E2,4.9880667E0,1.3731985E1,8.72894E0,2.6217884E1,8.124827E1,5.5524685E1,2.5723583E1],"tree_param":{"num_deleted":"0","num_feature":"15","num_nodes":"45","size_leaf_vector":"1"}},{"base_weights":[-1.692308E-2,4.7391307E-1,-8.627482E-1,-8.52678E-2,1.059338E0,-1.1023544E0,2.3012578E-1,1.1226497E-2,-2.364085E-1,1.343758E-2,6.0113496E-1,-1.3028209E-2,-6.124395E-1,-6.774639E-1,8.228738E-1,8.828283E-2,-5.777297E-1,7.661077E-1,-5.716003E-3,2.837594E-3,-6.8835396E-1,1.2497776E-3,-9.122743E-3,1.22702755E-2,2.6006302E-1,3.5703957E-1,-2.004925E-1,-7.91576E-1,-2.784124E-1,2.4258041E-4,8.84687E-3,-1.0256372E-2,-3.579028E-3,5.248559E-3,-4.5143454E-3,5.835934E-1,-1.942239E-4,-4.9778613E-1,1.7726872E-3,-8.501448E-1,2.5873338E-3,-2.0656157E-2,-7.3627853E-3,-3.1580206E-3,6.93842E-1,7.5861305E-4,-7.083882E-1,-4.1932255E-1,-1.1836416E-2,2.1133688E-3,-5.829513E-3,-1.8787326E-3,8.217834E-3,-8.940277E-3,9.2907826E-4,-7.00973E-3,2.0587181E-4],"categories":[],"categories_nodes":[],"categories_segments":[],"categories_sizes":[],"default_left":[0,0,0,0,0,0,0,0,0,0,0,0,0,0,0,0,0,0,0,0,0,0,0,0,0,0,0,0,0,0,0,0,0,0,0,0,0,0,0,0,0,0,0,0,0,0,0,0,0,0,0,0,0,0,0,0,0],"id":21,"left_children":[1,3,5,7,9,11,13,-1,15,-1,17,-1,19,21,23,25,27,29,-1,-1,31,-1,-1,-1,33,35,37,39,41,-1,-1,-1,-1,-1,-1,43,-1,45,-1,47,-1,49,-1,-1,51,-1,53,55,-1,-1,-1,-1,-1,-1,-1,-1,-1],"loss_changes":[3.1423584E2,1.5724785E2,7.387465E1,4.6009834E1,2.7285706E1,1.925644E1,3.0364517E1,0E0,2.5043781E1,0E0,2.0231457E1,0E0,5.764738E0,4.830799E0,6.212801E0,9.383463E0,6.020153E0,7.3121376E0,0E0,0E0,6.0937843E0,0E0,0E0,0E0,4.3794165E0,5.478626E0,6.935171E0,4.6925316E0,5.870491E0,0E0,0E0,0E0,0E0,0E0,0E0,4.7575703E0,0E0,4.41973E0,0E0,6.452343E0,0E0,5.3257113E0,0E0,0E0,4.7844696E0,0E0,4.2423344E0,4.116702E0,0E0,0E0,0E0,0E0,0E0,0E0,0E0,0E0,0E0],"parents":[2147483647,0,0,1,1,2,2,3,3,4,4,5,5,6,6,8,8,10,10,12,12,13,13,14,14,15,15,16,16,17,17,20,20,24,24,25,25,26,26,27,27,28,28,35,35,37,37,39,39,41,41,44,44,46,46,47,47],"right_children":[2,4,6,8,10,12,14,-1,16,-1,18,-1,20,22,24,26,28,30,-1,-1,32,-1,-1,-1,34,36,38,40,42,-1,-1,-1,-1,-1,-1,44,-1,46,-1,48,-1,50,-1,-1,52,-1,54,56,-1,-1,-1,-1,-1,-1,-1,-1,-1],"split_conditions":[1E0,3.243243E-1,3.918919E-1,1E0,1E0,4.3047214E-1,1.5281112E-1,1.1226497E-2,1E0,1.343758E-2,6.216216E-1,-1.3028209E-2,4.386949E-1,1E0,1E0,1E0,2.4324325E-1,3.5135135E-1,-5.716003E-3,2.837594E-3,2.2972973E-1,1.2497776E-3,-9.122743E-3,1.22702755E-2,5.945946E-1,1E0,1E0,7.183245E-1,5.2972454E-1,2.4258041E-4,8.84687E-3,-1.0256372E-2,-3.579028E-3,5.248559E-3,-4.5143454E-3,3.18E-1,-1.942239E-4,1.5281112E-1,1.7726872E-3,1E0,2.5873338E-3,1E0,-7.3627853E-3,-3.1580206E-3,3.9418298E-1,7.5861305E-4,5.8693993E-1,1E0,-1.1836416E-2,2.1133688E-3,-5.829513E-3,-1.8787326E-3,8.217834E-3,-8.940277E-3,9.2907826E-4,-7.00973E-3,2.0587181E-4],"split_indices":[12,1,1,11,3,2,2,0,3,0,1,0,2,3,3,6,1,1,0,0,1,0,0,0,1,8,9,2,2,0,0,0,0,0,0,0,0,2,0,6,0,8,0,0,2,0,2,9,0,0,0,0,0,0,0,0,0],"split_type":[0,0,0,0,0,0,0,0,0,0,0,0,0,0,0,0,0,0,0,0,0,0,0,0,0,0,0,0,0,0,0,0,0,0,0,0,0,0,0,0,0,0,0,0,0,0,0,0,0,0,0,0,0,0,0,0,0],"sum_hessian":[7.497209E2,4.752354E2,2.7448547E2,2.4441751E2,2.308179E2,2.2526166E2,4.9223812E1,2.4511564E1,2.1990594E2,1.3793669E2,9.288122E1,1.5540402E2,6.985764E1,1.9107279E1,3.0116533E1,1.1371633E2,1.0618962E2,8.26542E1,1.0227016E1,4.485292E0,6.5372345E1,4.4934773E0,1.4613801E1,1.4893885E1,1.5222649E1,5.8849327E1,5.4867004E1,5.815128E1,4.803834E1,1.2221158E1,7.0433044E1,2.8372654E1,3.6999695E1,1.19834175E1,3.2392306E0,3.5883057E1,2.296627E1,3.0392344E1,2.447466E1,5.5905884E1,2.245398E0,3.338366E1,1.4654683E1,2.9922655E0,3.289079E1,8.495477E0,2.1896866E1,2.813498E1,2.7770905E1,2.492016E1,8.463498E0,3.7491114E0,2.9141678E1,1.7662487E1,4.2343793E0,1.6174244E1,1.1960735E1],"tree_param":{"num_deleted":"0","num_feature":"15","num_nodes":"57","size_leaf_vector":"1"}},{"base_weights":[8.8676205E-3,-5.4797643E-1,7.6265454E-1,-9.6724585E-2,-1.162651E-2,1.0965223E0,-1.726957E-1,1.094255E-2,-2.3803079E-1,1.3529581E0,6.675434E-1,-6.102737E-3,4.3007E-1,-4.9100903E-1,3.4458798E-1,-0E0,1.3745433E-2,7.645843E-1,-3.514703E-3,9.950916E-3,-5.81058E-4,-1.22917324E-1,-8.483206E-3,6.4849355E-3,-5.3348422E-2,1.3553914E-2,6.128615E-1,-4.6536988E-3,2.5253475E-1,-7.23735E-3,2.091817E-3,5.777941E-4,7.48429E-3,-4.1462346E-3,3.9882413E-1,1.4231881E-3,8.93648E-3],"categories":[],"categories_nodes":[],"categories_segments":[],"categories_sizes":[],"default_left":[0,0,0,0,0,0,0,0,0,0,0,0,0,0,0,0,0,0,0,0,0,0,0,0,0,0,0,0,0,0,0,0,0,0,0,0,0],"id":22,"left_children":[1,3,5,7,-1,9,11,-1,13,15,17,-1,19,21,23,-1,-1,25,-1,-1,-1,27,-1,-1,29,-1,31,-1,33,-1,-1,-1,-1,-1,35,-1,-1],"loss_changes":[3.146795E2,1.18880936E2,1.00361664E2,4.3239487E1,0E0,2.2296326E1,2.382492E1,0E0,3.4352642E1,4.2702637E0,1.0460701E1,0E0,1.0971689E1,2.0635807E1,8.8451395E0,0E0,0E0,4.580841E0,0E0,0E0,0E0,1.123725E1,0E0,0E0,6.5779786E0,0E0,5.471504E0,0E0,4.6748466E0,0E0,0E0,0E0,0E0,0E0,3.9631672E0,0E0,0E0],"parents":[2147483647,0,0,1,1,2,2,3,3,5,5,6,6,8,8,9,9,10,10,12,12,13,13,14,14,17,17,21,21,24,24,26,26,28,28,34,34],"right_children":[2,4,6,8,-1,10,12,-1,14,16,18,-1,20,22,24,-1,-1,26,-1,-1,-1,28,-1,-1,30,-1,32,-1,34,-1,-1,-1,-1,-1,36,-1,-1],"split_conditions":[6.315789E-1,1E0,1E0,1E0,-1.162651E-2,1E0,7.894737E-1,1.094255E-2,1E0,1.2062752E-2,6.081081E-1,-6.102737E-3,1E0,1E0,1E0,-0E0,1.3745433E-2,1E0,-3.514703E-3,9.950916E-3,-5.81058E-4,1E0,-8.483206E-3,6.4849355E-3,1.7567568E-1,1.3553914E-2,3.6486486E-1,-4.6536988E-3,1.1363325E-1,-7.23735E-3,2.091817E-3,5.777941E-4,7.48429E-3,-4.1462346E-3,2.972973E-1,1.4231881E-3,8.93648E-3],"split_indices":[5,12,12,11,0,3,5,0,7,4,1,0,3,3,3,0,0,11,0,0,0,9,0,0,1,0,1,0,4,0,0,0,0,0,1,0,0],"split_type":[0,0,0,0,0,0,0,0,0,0,0,0,0,0,0,0,0,0,0,0,0,0,0,0,0,0,0,0,0,0,0,0,0,0,0,0,0],"sum_hessian":[7.425707E2,4.2746732E2,3.1510336E2,2.4904842E2,1.784189E2,2.3193585E2,8.31675E1,2.3740074E1,2.2530833E2,1.4011075E2,9.18251E1,4.8364895E1,3.480261E1,1.577352E2,6.757314E1,2.2153792E0,1.3789537E2,8.483264E1,6.992459E0,1.4640151E1,2.0162458E1,8.031612E1,7.741908E1,3.73597E1,3.0213448E1,1.134735E1,7.348529E1,4.1858776E1,3.845734E1,6.9908524E0,2.3222595E1,1.5715959E1,5.7769337E1,5.495338E0,3.2962E1,2.4973362E1,7.988639E0],"tree_param":{"num_deleted":"0","num_feature":"15","num_nodes":"37","size_leaf_vector":"1"}},{"base_weights":[-1.0412951E-2,-5.6650656E-1,7.4069566E-1,-1.4827825E-1,-1.1136206E0,1.0651015E0,-1.6293709E-1,9.9011725E-3,-2.649354E-1,-1.2498657E-2,-7.735268E-3,1.3310813E-2,6.330135E-1,-6.766316E-3,3.458538E-1,5.821076E-2,-5.877116E-1,1.3779225E-2,4.6687984E-1,8.53988E-3,-9.298692E-4,-2.4398383E-1,3.8580513E-3,-7.569712E-3,-1.1980587E-3,1.9008444E-1,8.773439E-3,1.255194E-1,-6.139803E-1,3.0619135E-1,-6.425833E-3,3.6025296E-3,-3.1699967E-3,-8.932825E-3,1.1094363E-3,5.850942E-3,-8.8743423E-4],"categories":[],"categories_nodes":[],"categories_segments":[],"categories_sizes":[],"default_left":[0,0,0,0,0,0,0,0,0,0,0,0,0,0,0,0,0,0,0,0,0,0,0,0,0,0,0,0,0,0,0,0,0,0,0,0,0],"id":23,"left_children":[1,3,5,7,9,11,13,-1,15,-1,-1,-1,17,-1,19,21,23,-1,25,-1,-1,27,-1,-1,-1,29,-1,31,33,35,-1,-1,-1,-1,-1,-1,-1],"loss_changes":[3.1790845E2,9.926163E1,9.568677E1,3.4266434E1,4.9184723E0,2.4066467E1,2.399329E1,0E0,2.4403458E1,0E0,0E0,0E0,9.474758E0,0E0,1.0814917E1,1.2109431E1,8.727955E0,0E0,8.92218E0,0E0,0E0,9.062487E0,0E0,0E0,0E0,6.032057E0,0E0,3.9870195E0,7.122347E0,5.985681E0,0E0,0E0,0E0,0E0,0E0,0E0,0E0],"parents":[2147483647,0,0,1,1,2,2,3,3,4,4,5,5,6,6,8,8,12,12,14,14,15,15,16,16,18,18,21,21,25,25,27,27,28,28,29,29],"right_children":[2,4,6,8,10,12,14,-1,16,-1,-1,-1,18,-1,20,22,24,-1,26,-1,-1,28,-1,-1,-1,30,-1,32,34,36,-1,-1,-1,-1,-1,-1,-1],"split_conditions":[6.315789E-1,1E0,1E0,1E0,5E-1,1E0,7.631579E-1,9.9011725E-3,1E0,-1.2498657E-2,-7.735268E-3,1.3310813E-2,1E0,-6.766316E-3,1E0,1E0,1E0,1.3779225E-2,1E0,8.53988E-3,-9.298692E-4,1E0,3.8580513E-3,-7.569712E-3,-1.1980587E-3,6.216216E-1,8.773439E-3,6.88E-1,2.5675675E-1,6.36E-1,-6.425833E-3,3.6025296E-3,-3.1699967E-3,-8.932825E-3,1.1094363E-3,5.850942E-3,-8.8743423E-4],"split_indices":[5,12,12,11,5,3,5,0,3,0,0,0,11,0,3,9,7,0,7,0,0,6,0,0,0,1,0,0,1,0,0,0,0,0,0,0,0],"split_type":[0,0,0,0,0,0,0,0,0,0,0,0,0,0,0,0,0,0,0,0,0,0,0,0,0,0,0,0,0,0,0,0,0,0,0,0,0],"sum_hessian":[7.541552E2,4.3399078E2,3.2016443E2,2.4872021E2,1.8527058E2,2.3529813E2,8.4866295E1,2.0501957E1,2.2821826E2,1.2511618E2,6.0154396E1,1.4081114E2,9.448699E1,4.1859673E1,4.3006622E1,1.1515608E2,1.1306217E2,1.2319514E1,8.216747E1,1.8611883E1,2.4394741E1,6.0030495E1,5.5125587E1,8.10995E1,3.1962677E1,5.245606E1,2.9711416E1,3.0911299E1,2.9119194E1,4.821175E1,4.2443094E0,2.0937784E1,9.973516E0,2.064185E1,8.477345E0,2.7578907E1,2.0632843E1],"tree_param":{"num_deleted":"0","num_feature":"15","num_nodes":"37","size_leaf_vector":"1"}},{"base_weights":[-2.626346E-2,-6.0488206E-1,7.4308145E-1,-1.8391219E-1,-1.1519605E0,1.0915102E0,-1.728149E-1,1.0438701E-2,-3.2264784E-1,-1.314212E-2,-6.9857436E-1,1.3491447E-2,6.6075367E-1,-7.6784897E-1,2.6496294E-1,2.9263445E-3,-6.652303E-1,-9.89195E-3,-2.4865453E-1,7.5447834E-1,-4.146741E-3,-2.5019142E-1,-1.0339443E-2,-3.422318E-3,7.150038E-1,3.0257282E-1,-3.2791564E-1,-7.4472404E-3,2.9532902E-4,2.1828206E-1,-7.2643915E-3,1.3825591E-2,5.8101416E-3,-6.389175E-3,8.404945E-3,1.0677743E-2,2.5002684E-3,4.0441868E-1,-2.464832E-3,-5.5552E-1,6.1780927E-3,-5.093093E-3,6.8151294E-3,6.250732E-1,4.828558E-2,-6.690069E-1,6.088683E-3,-3.5479756E-3,7.1487036E-3,4.766496E-3,-3.2901627E-3,-1.2605053E-1,-9.33003E-3,-4.931244E-3,3.7393987E-3],"categories":[],"categories_nodes":[],"categories_segments":[],"categories_sizes":[],"default_left":[0,0,0,0,0,0,0,0,0,0,0,0,0,0,0,0,0,0,0,0,0,0,0,0,0,0,0,0,0,0,0,0,0,0,0,0,0,0,0,0,0,0,0,0,0,0,0,0,0,0,0,0,0,0,0],"id":24,"left_children":[1,3,5,7,9,11,13,-1,15,-1,17,-1,19,21,23,25,27,-1,29,31,-1,33,-1,-1,35,37,39,-1,-1,41,-1,-1,-1,-1,-1,-1,-1,43,-1,45,-1,-1,-1,47,49,51,-1,-1,-1,-1,-1,53,-1,-1,-1],"loss_changes":[3.3767612E2,9.870439E1,1.0474516E2,4.3468674E1,1.0132294E1,2.2681824E1,2.4939022E1,0E0,2.5430655E1,0E0,6.358223E0,0E0,1.0818581E1,4.376051E0,1.6173626E1,1.21814995E1,6.347801E0,0E0,6.7896924E0,6.5050697E0,0E0,9.736E0,0E0,0E0,4.2531853E0,4.009033E0,1.3700608E1,0E0,0E0,6.772392E0,0E0,0E0,0E0,0E0,0E0,0E0,0E0,4.178401E0,0E0,7.9024715E0,0E0,0E0,0E0,3.9709692E0,4.7417474E0,6.0079937E0,0E0,0E0,0E0,0E0,0E0,4.252343E0,0E0,0E0,0E0],"parents":[2147483647,0,0,1,1,2,2,3,3,4,4,5,5,6,6,8,8,10,10,12,12,13,13,14,14,15,15,16,16,18,18,19,19,21,21,24,24,25,25,26,26,29,29,37,37,39,39,43,43,44,44,45,45,51,51],"right_children":[2,4,6,8,10,12,14,-1,16,-1,18,-1,20,22,24,26,28,-1,30,32,-1,34,-1,-1,36,38,40,-1,-1,42,-1,-1,-1,-1,-1,-1,-1,44,-1,46,-1,-1,-1,48,50,52,-1,-1,-1,-1,-1,54,-1,-1,-1],"split_conditions":[6.315789E-1,1E0,1E0,1E0,4.3047214E-1,1E0,1.5281112E-1,1.0438701E-2,1E0,-1.314212E-2,1E0,1.3491447E-2,6.216216E-1,1E0,3.918919E-1,1E0,8.9725417E-1,-9.89195E-3,5.3560203E-1,1E0,-4.146741E-3,4.4594595E-1,-1.0339443E-2,-3.422318E-3,1E0,5.7834494E-1,2.972973E-1,-7.4472404E-3,2.9532902E-4,1.891892E-1,-7.2643915E-3,1.3825591E-2,5.8101416E-3,-6.389175E-3,8.404945E-3,1.0677743E-2,2.5002684E-3,1E0,-2.464832E-3,6.765402E-1,6.1780927E-3,-5.093093E-3,6.8151294E-3,3.1240225E-1,3.1240225E-1,3.4610847E-1,6.088683E-3,-3.5479756E-3,7.1487036E-3,4.766496E-3,-3.2901627E-3,5.5017406E-1,-9.33003E-3,-4.931244E-3,3.7393987E-3],"split_indices":[5,12,12,11,2,3,2,0,3,0,9,0,1,3,1,6,4,0,2,11,0,1,0,0,3,2,1,0,0,1,0,0,0,0,0,0,0,8,0,2,0,0,0,2,2,2,0,0,0,0,0,4,0,0,0],"split_type":[0,0,0,0,0,0,0,0,0,0,0,0,0,0,0,0,0,0,0,0,0,0,0,0,0,0,0,0,0,0,0,0,0,0,0,0,0,0,0,0,0,0,0,0,0,0,0,0,0,0,0,0,0,0,0],"sum_hessian":[7.515523E2,4.2953192E2,3.2202036E2,2.4561848E2,1.8391344E2,2.3295563E2,8.9064735E1,2.2451723E1,2.2316676E2,1.3018092E2,5.373251E1,1.4077055E2,9.2185074E1,3.6833145E1,5.2231594E1,1.1589436E2,1.0727241E2,2.9798092E1,2.3934416E1,8.5941895E1,6.243184E0,1.50926485E1,2.1740496E1,2.2391903E1,2.9839693E1,6.130825E1,5.458611E1,9.6305504E1,1.0966904E1,1.2846293E1,1.1088122E1,1.3029155E1,7.2912735E1,1.2344234E1,2.748414E0,1.4115276E1,1.5724416E1,5.2822636E1,8.485615E0,4.534771E1,9.2383995E0,4.6831026E0,8.163192E0,3.0607498E1,2.2215137E1,4.2849724E1,2.4979858E0,1.4999622E0,2.9107536E1,1.0233034E1,1.1982103E1,1.5981057E1,2.6868668E1,9.487789E0,6.4932685E0],"tree_param":{"num_deleted":"0","num_feature":"15","num_nodes":"55","size_leaf_vector":"1"}},{"base_weights":[1.2572241E-2,-5.707957E-1,6.938453E-1,-1.3528697E-1,-1.128858E0,1.0016074E0,-1.6240399E-1,1.0630476E-2,-2.604328E-1,-1.3432083E-2,-7.6141423E-1,1.251765E0,6.184674E-1,-8.2108074E-1,3.105961E-1,-4.7102657E-1,2.518235E-1,2.4203507E-3,-8.0320835E-3,2.761182E-3,1.3149719E0,1.3550808E-2,4.56488E-1,-2.5818697E-1,-1.0713548E-2,-1.8146131E-3,9.270919E-3,7.7002406E-2,-7.298734E-1,-8.107338E-3,4.5498744E-1,-0E0,1.3363939E-2,1.400111E-1,7.988719E-3,-5.436136E-3,6.7434674E-3,-5.1026265E-3,2.6217538E-1,-8.010534E-1,4.235293E-3,6.1266706E-3,-4.0119723E-3,-1.8511227E-1,7.112895E-3,-4.7767028E-4,6.4678E-3,-8.9846444E-1,3.205567E-4,4.2815465E-3,-5.251167E-1,-9.8121476E-1,-1.8272167E-3,-8.431143E-3,-1.5657112E-3,-6.409744E-3,-1.24182105E-2,-4.57134E-3,5.154445E-3],"categories":[],"categories_nodes":[],"categories_segments":[],"categories_sizes":[],"default_left":[0,0,0,0,0,0,0,0,0,0,0,0,0,0,0,0,0,0,0,0,0,0,0,0,0,0,0,0,0,0,0,0,0,0,0,0,0,0,0,0,0,0,0,0,0,0,0,0,0,0,0,0,0,0,0,0,0,0,0],"id":25,"left_children":[1,3,5,7,9,11,13,-1,15,-1,17,19,21,23,25,27,29,-1,-1,-1,31,-1,33,35,-1,-1,-1,37,39,-1,41,-1,-1,43,-1,-1,-1,-1,45,47,-1,-1,-1,49,-1,-1,-1,51,-1,-1,53,55,-1,-1,57,-1,-1,-1,-1],"loss_changes":[3.0309198E2,9.900476E1,9.348308E1,3.602651E1,1.0080063E1,2.1755646E1,3.0878763E1,0E0,2.3727331E1,0E0,3.929165E0,7.8359528E0,1.0541718E1,4.553604E0,1.839672E1,2.223008E1,1.52158985E1,0E0,0E0,0E0,4.1649933E0,0E0,9.761034E0,5.9418488E0,0E0,0E0,0E0,6.119563E0,9.928638E0,0E0,8.58288E0,0E0,0E0,1.0648877E1,0E0,0E0,0E0,0E0,5.297082E0,8.4561615E0,0E0,0E0,0E0,8.551562E0,0E0,0E0,0E0,4.4825897E0,0E0,0E0,4.0922265E0,3.899109E0,0E0,0E0,3.991428E0,0E0,0E0,0E0,0E0],"parents":[2147483647,0,0,1,1,2,2,3,3,4,4,5,5,6,6,8,8,10,10,11,11,12,12,13,13,14,14,15,15,16,16,20,20,22,22,23,23,27,27,28,28,30,30,33,33,38,38,39,39,43,43,47,47,50,50,51,51,54,54],"right_children":[2,4,6,8,10,12,14,-1,16,-1,18,20,22,24,26,28,30,-1,-1,-1,32,-1,34,36,-1,-1,-1,38,40,-1,42,-1,-1,44,-1,-1,-1,-1,46,48,-1,-1,-1,50,-1,-1,-1,52,-1,-1,54,56,-1,-1,58,-1,-1,-1,-1],"split_conditions":[6.052632E-1,1E0,1E0,1E0,3.3195373E-1,1E0,1.5281112E-1,1.0630476E-2,1E0,-1.3432083E-2,3.543903E-1,3.243243E-1,1E0,1E0,7.894737E-1,3.1921697E-1,3.9295986E-1,2.4203507E-3,-8.0320835E-3,2.761182E-3,1.2062752E-2,1.3550808E-2,8.1578946E-1,4.5945945E-1,-1.0713548E-2,-1.8146131E-3,9.270919E-3,1.6216215E-1,7.096828E-1,-8.107338E-3,5.738904E-1,-0E0,1.3363939E-2,1E0,7.988719E-3,-5.436136E-3,6.7434674E-3,-5.1026265E-3,5.4435635E-1,5.7894737E-1,4.235293E-3,6.1266706E-3,-4.0119723E-3,2.653395E-1,7.112895E-3,-4.7767028E-4,6.4678E-3,8.3466893E-1,3.205567E-4,4.2815465E-3,5.1514184E-1,1E0,-1.8272167E-3,-8.431143E-3,5.074467E-1,-6.409744E-3,-1.24182105E-2,-4.57134E-3,5.154445E-3],"split_indices":[5,12,12,11,2,3,2,0,7,0,2,1,11,3,5,2,2,0,0,0,4,0,5,1,0,0,0,1,2,0,2,0,0,7,0,0,0,0,4,5,0,0,0,2,0,0,0,4,0,0,2,3,0,0,4,0,0,0,0],"split_type":[0,0,0,0,0,0,0,0,0,0,0,0,0,0,0,0,0,0,0,0,0,0,0,0,0,0,0,0,0,0,0,0,0,0,0,0,0,0,0,0,0,0,0,0,0,0,0,0,0,0,0,0,0,0,0,0,0,0,0],"sum_hessian":[7.555369E2,4.071539E2,3.4838306E2,2.3135512E2,1.7579878E2,2.5601425E2,9.23688E1,1.9223955E1,2.1213116E2,1.04766266E2,7.103251E1,1.4972795E2,1.0628631E2,3.7712402E1,5.46564E1,1.5082317E2,6.1308002E1,1.9636486E0,6.9068855E1,1.0462722E1,1.3926523E2,1.4253451E1,9.203285E1,1.4066832E1,2.3645569E1,3.158482E1,2.3071577E1,4.891415E1,1.0190901E2,7.9849744E0,5.332303E1,2.2087395E0,1.3705649E2,5.0722626E1,4.1310226E1,1.206741E1,1.9994217E0,9.971334E0,3.8942814E1,9.7170525E1,4.738492E0,4.6083893E1,7.239138E0,3.3604225E1,1.71184E1,2.2964958E1,1.5977857E1,8.697909E1,1.0191433E1,1.1438045E1,2.2166182E1,7.653039E1,1.0448698E1,1.2202767E1,9.963415E0,3.882382E1,3.770657E1,5.7309227E0,4.2324924E0],"tree_param":{"num_deleted":"0","num_feature":"15","num_nodes":"59","size_leaf_vector":"1"}},{"base_weights":[1.7362965E-2,-5.2465016E-1,7.413485E-1,-7.777669E-2,-1.0998036E0,1.0466725E0,-9.596542E-2,1.043353E-2,-2.104016E-1,-1.3092516E-2,-8.010945E-3,1.090401E0,5.61831E-4,-7.202618E-1,3.9341998E-1,-4.280709E-1,3.062398E-1,6.7431363E-3,1.182374E-2,-8.899124E-3,-1.7140256E-4,-2.895582E-3,9.417369E-3,1.8861985E-1,-7.031664E-1,-7.2121304E-3,5.046823E-1,5.957236E-3,-6.1822634E-2,-7.7642417E-3,3.712646E-3,6.6482186E-1,-2.8047347E-3,-3.307049E-3,7.23218E-3,2.8353466E-3,9.3961125E-3],"categories":[],"categories_nodes":[],"categories_segments":[],"categories_sizes":[],"default_left":[0,0,0,0,0,0,0,0,0,0,0,0,0,0,0,0,0,0,0,0,0,0,0,0,0,0,0,0,0,0,0,0,0,0,0,0,0],"id":26,"left_children":[1,3,5,7,9,11,13,-1,15,-1,-1,17,-1,19,21,23,25,-1,-1,-1,-1,-1,-1,27,29,-1,31,-1,33,-1,-1,35,-1,-1,-1,-1,-1],"loss_changes":[2.9481253E2,1.0983221E2,8.280623E1,3.7125496E1,7.58255E0,9.773773E0,2.825913E1,0E0,2.5540817E1,0E0,0E0,5.445648E0,0E0,4.590431E0,2.0562576E1,2.7465288E1,1.50583E1,0E0,0E0,0E0,0E0,0E0,0E0,5.4862885E0,9.804256E0,0E0,8.1641865E0,0E0,8.083688E0,0E0,0E0,4.0769157E0,0E0,0E0,0E0,0E0,0E0],"parents":[2147483647,0,0,1,1,2,2,3,3,4,4,5,5,6,6,8,8,11,11,13,13,14,14,15,15,16,16,23,23,24,24,26,26,28,28,31,31],"right_children":[2,4,6,8,10,12,14,-1,16,-1,-1,18,-1,20,22,24,26,-1,-1,-1,-1,-1,-1,28,30,-1,32,-1,34,-1,-1,36,-1,-1,-1,-1,-1],"split_conditions":[6.315789E-1,1E0,1E0,1E0,2.205214E-1,6.216216E-1,2.5867203E-1,1.043353E-2,1E0,-1.3092516E-2,-8.010945E-3,3.6486486E-1,5.61831E-4,8.684211E-1,7.631579E-1,3.1240225E-1,3.9295986E-1,6.7431363E-3,1.182374E-2,-8.899124E-3,-1.7140256E-4,-2.895582E-3,9.417369E-3,1E0,7.096828E-1,-7.2121304E-3,5.738904E-1,5.957236E-3,5.7894737E-1,-7.7642417E-3,3.712646E-3,1E0,-2.8047347E-3,-3.307049E-3,7.23218E-3,2.8353466E-3,9.3961125E-3],"split_indices":[5,12,12,11,2,1,2,0,7,0,0,1,0,5,5,2,2,0,0,0,0,0,0,6,2,0,2,0,5,0,0,9,0,0,0,0,0],"split_type":[0,0,0,0,0,0,0,0,0,0,0,0,0,0,0,0,0,0,0,0,0,0,0,0,0,0,0,0,0,0,0,0,0,0,0,0,0],"sum_hessian":[7.441677E2,4.2595285E2,3.1821484E2,2.421625E2,1.8379033E2,2.3272588E2,8.5488976E1,